{"learner":{"attributes":{},"feature_names":["num__length","num__diameter","num__height","num__weight","num__shucked_weight","num__viscera_weight","num__shell_weight","cat__sex_F","cat__sex_I","cat__sex_M","shell_weight_ratio","shucked_weight_ratio","vis_shucked_weight_ratio","surface_area"],"feature_types":["float","float","float","float","float","float","float","float","float","float","float","float","float","float"],"gradient_booster":{"model":{"gbtree_model_param":{"num_parallel_tree":"1","num_trees":"100"},"iteration_indptr":[0,1,2,3,4,5,6,7,8,9,10,11,12,13,14,15,16,17,18,19,20,21,22,23,24,25,26,27,28,29,30,31,32,33,34,35,36,37,38,39,40,41,42,43,44,45,46,47,48,49,50,51,52,53,54,55,56,57,58,59,60,61,62,63,64,65,66,67,68,69,70,71,72,73,74,75,76,77,78,79,80,81,82,83,84,85,86,87,88,89,90,91,92,93,94,95,96,97,98,99,100],"tree_info":[0,0,0,0,0,0,0,0,0,0,0,0,0,0,0,0,0,0,0,0,0,0,0,0,0,0,0,0,0,0,0,0,0,0,0,0,0,0,0,0,0,0,0,0,0,0,0,0,0,0,0,0,0,0,0,0,0,0,0,0,0,0,0,0,0,0,0,0,0,0,0,0,0,0,0,0,0,0,0,0,0,0,0,0,0,0,0,0,0,0,0,0,0,0,0,0,0,0,0,0],"trees":[{"base_weights":[-6.6854293E-3,-2.449777E0,1.2935957E0,-3.8222191E0,-1.5363073E0,5.13016E-1,2.473958E0,-4.945419E0,-3.2175882E0,-5.9490967E-1,-2.0823781E0,-5.291445E-2,9.213146E-1,4.337322E0,1.536661E0,-5.533967E0,-4.539375E0,-1.8011563E0,-3.4320211E0,-9.031742E-1,1.7306982E-1,-2.6067586E0,-1.7219005E0,1.4835458E0,-2.955478E-1,2.0781934E0,4.4522235E-1,3.5755565E0,5.1536946E0,1.1118215E0,2.0871763E0,-7.3072755E-1,-6.8319696E-1,-6.210022E-1,-4.3823276E0,-2.0387738E0,-1.0535022E0,-3.7834477E0,-3.2207558E0,-1.816074E-1,-1.0986485E0,-7.2858006E-2,7.17817E-1,-2.7664418E0,-2.3952963E0,-1.7933527E0,-6.694365E-1,9.3197954E-1,2.7626343E0,-7.967754E-2,-8.474296E-1,1.5050107E0,2.6721132E0,2.5032027E0,2.8078845E-1,4.2397275E0,2.68311E0,6.2691545E0,4.3461475E0,1.4445858E0,7.6723737E-1,1.8687694E0,3.3380487E0,-4.8332873E-1,-5.653255E-1,-2.7309832E-1,-1.3685097E-1,-3.4079872E-2,-1.7920582E-1,-5.139237E-1,-4.6710855E-1,-4.2750275E-1,-3.8568884E-1,-1.2991042E-1,-1.4883437E-3,-1.7027858E-1,-1.1769685E-1,3.0475846E-1,-1.7736468E-2,1.3733895E-1,-4.255415E-2,-3.6179385E-1,-3.2269362E-1,-2.4888869E-1,-3.179906E-1,-2.5799683E-1,-2.0173766E-1,-9.7350985E-2,7.345955E-2,1.7934182E-1,-1.4801737E-2,4.326292E-1,2.8611746E-1,5.108057E-2,-5.4241884E-2,-1.4877819E-1,-5.8807705E-2,4.0591535E-1,1.5983422E-1,3.8320863E-1,2.3323162E-1,3.4615427E-1,1.7627676E-1,1.0650425E-1,1.2421414E-2,6.9183505E-1,5.1759535E-1,5.253115E-1,3.2993978E-1,8.5629547E-1,7.1949065E-1,5.2200526E-1,6.7880434E-1,1.9600156E-1,1.1398687E-1,3.7952575E-1,9.14069E-2,2.931104E-1,1.8800189E-1,4.8941025E-1,2.8700972E-1],"categories":[],"categories_nodes":[],"categories_segments":[],"categories_sizes":[],"default_left":[0,0,0,0,0,0,0,0,0,0,0,0,0,0,0,0,0,0,0,0,0,0,0,0,0,0,0,0,0,0,0,0,0,0,0,0,0,0,0,0,0,0,0,0,0,0,0,0,0,0,0,0,0,0,0,0,0,0,0,0,0,0,0,0,0,0,0,0,0,0,0,0,0,0,0,0,0,0,0,0,0,0,0,0,0,0,0,0,0,0,0,0,0,0,0,0,0,0,0,0,0,0,0,0,0,0,0,0,0,0,0,0,0,0,0,0,0,0,0,0,0],"id":0,"left_children":[1,3,5,7,9,11,13,15,17,19,21,23,25,27,29,31,33,35,37,39,41,43,45,47,49,51,53,55,57,59,61,-1,-1,-1,63,65,67,69,71,73,75,77,79,81,83,85,87,89,91,93,95,97,99,101,103,105,107,109,111,113,115,117,119,-1,-1,-1,-1,-1,-1,-1,-1,-1,-1,-1,-1,-1,-1,-1,-1,-1,-1,-1,-1,-1,-1,-1,-1,-1,-1,-1,-1,-1,-1,-1,-1,-1,-1,-1,-1,-1,-1,-1,-1,-1,-1,-1,-1,-1,-1,-1,-1,-1,-1,-1,-1,-1,-1,-1,-1,-1,-1],"loss_changes":[1.7580206E5,2.409371E4,3.3276664E4,5.200414E3,5.932672E3,5.023943E3,2.5103133E4,6.167656E2,1.51125E3,1.00370056E3,1.3763555E3,3.3977327E3,6.9554404E3,2.973461E3,2.2352168E3,7.1210938E0,6.139453E1,1.14927246E2,3.0988672E2,4.264702E2,1.6282404E2,9.3796875E1,3.245703E2,8.74364E2,9.376431E2,1.2494209E3,3.0276548E3,1.4657285E3,2.062582E3,6.18313E2,1.1319102E3,0E0,0E0,0E0,1.5988281E1,4.721826E1,4.415352E1,3.3478516E1,6.001367E1,9.1884254E1,9.7718994E1,1.3700128E2,1.4310898E2,2.0950195E1,5.123633E1,1.938086E2,3.2853683E1,4.3267963E2,1.146543E2,9.395684E2,2.7235632E2,7.881992E2,5.016797E2,1.529751E2,8.4251245E2,2.8404102E2,1.3607666E2,2.3375781E2,3.112871E2,1.3839648E2,2.938916E2,5.9826074E2,3.2719336E2,0E0,0E0,0E0,0E0,0E0,0E0,0E0,0E0,0E0,0E0,0E0,0E0,0E0,0E0,0E0,0E0,0E0,0E0,0E0,0E0,0E0,0E0,0E0,0E0,0E0,0E0,0E0,0E0,0E0,0E0,0E0,0E0,0E0,0E0,0E0,0E0,0E0,0E0,0E0,0E0,0E0,0E0,0E0,0E0,0E0,0E0,0E0,0E0,0E0,0E0,0E0,0E0,0E0,0E0,0E0,0E0,0E0,0E0],"parents":[2147483647,0,0,1,1,2,2,3,3,4,4,5,5,6,6,7,7,8,8,9,9,10,10,11,11,12,12,13,13,14,14,15,15,16,16,17,17,18,18,19,19,20,20,21,21,22,22,23,23,24,24,25,25,26,26,27,27,28,28,29,29,30,30,34,34,35,35,36,36,37,37,38,38,39,39,40,40,41,41,42,42,43,43,44,44,45,45,46,46,47,47,48,48,49,49,50,50,51,51,52,52,53,53,54,54,55,55,56,56,57,57,58,58,59,59,60,60,61,61,62,62],"right_children":[2,4,6,8,10,12,14,16,18,20,22,24,26,28,30,32,34,36,38,40,42,44,46,48,50,52,54,56,58,60,62,-1,-1,-1,64,66,68,70,72,74,76,78,80,82,84,86,88,90,92,94,96,98,100,102,104,106,108,110,112,114,116,118,120,-1,-1,-1,-1,-1,-1,-1,-1,-1,-1,-1,-1,-1,-1,-1,-1,-1,-1,-1,-1,-1,-1,-1,-1,-1,-1,-1,-1,-1,-1,-1,-1,-1,-1,-1,-1,-1,-1,-1,-1,-1,-1,-1,-1,-1,-1,-1,-1,-1,-1,-1,-1,-1,-1,-1,-1,-1,-1],"split_conditions":[-4.6409678E-1,-1.2392032E0,6.5506196E-1,-1.5951194E0,1E0,1.0141451E-1,8.0712974E-1,-1.705466E0,1E0,1.0589284E0,-9.2678785E-1,-5.3952944E-1,7.668449E-1,1.2087094E0,1.2087094E0,-2.8408177E0,-2.3195412E0,1.0113454E0,-1.4013427E0,8.917993E-1,1.1836027E0,-9.2998344E-1,1.1421533E0,1.4604124E0,1E0,3.7823823E-1,-2.518959E-1,6.020989E-1,6.020989E-1,1.0896628E0,1.283723E0,-7.3072755E-1,-6.8319696E-1,-6.210022E-1,1E0,-1.2022072E0,9.694863E-1,-1.5199815E0,-1.3182957E0,8.69246E-1,8.855029E-1,-1.2225097E0,-5.622373E-1,1.0027213E0,9.5932406E-1,-7.2905666E-1,1.4807063E0,1E0,-7.111003E-1,-1.4340255E-1,-1.8331845E-1,-2.0395698E-1,5.653304E-1,1E0,1.0482692E0,-1.7367977E-1,3.2841733E-1,5.0789523E-1,2.0905907E0,1.2417799E0,6.162357E-2,1.0258886E0,1.0482692E0,-4.8332873E-1,-5.653255E-1,-2.7309832E-1,-1.3685097E-1,-3.4079872E-2,-1.7920582E-1,-5.139237E-1,-4.6710855E-1,-4.2750275E-1,-3.8568884E-1,-1.2991042E-1,-1.4883437E-3,-1.7027858E-1,-1.1769685E-1,3.0475846E-1,-1.7736468E-2,1.3733895E-1,-4.255415E-2,-3.6179385E-1,-3.2269362E-1,-2.4888869E-1,-3.179906E-1,-2.5799683E-1,-2.0173766E-1,-9.7350985E-2,7.345955E-2,1.7934182E-1,-1.4801737E-2,4.326292E-1,2.8611746E-1,5.108057E-2,-5.4241884E-2,-1.4877819E-1,-5.8807705E-2,4.0591535E-1,1.5983422E-1,3.8320863E-1,2.3323162E-1,3.4615427E-1,1.7627676E-1,1.0650425E-1,1.2421414E-2,6.9183505E-1,5.1759535E-1,5.253115E-1,3.2993978E-1,8.5629547E-1,7.1949065E-1,5.2200526E-1,6.7880434E-1,1.9600156E-1,1.1398687E-1,3.7952575E-1,9.14069E-2,2.931104E-1,1.8800189E-1,4.8941025E-1,2.8700972E-1],"split_indices":[6,6,6,6,8,6,11,3,8,11,6,4,11,6,6,0,0,11,6,10,11,2,11,11,8,6,4,11,11,11,10,0,0,0,8,5,10,6,6,11,11,5,4,11,10,6,11,8,4,4,6,4,11,8,11,4,4,11,6,4,5,11,11,0,0,0,0,0,0,0,0,0,0,0,0,0,0,0,0,0,0,0,0,0,0,0,0,0,0,0,0,0,0,0,0,0,0,0,0,0,0,0,0,0,0,0,0,0,0,0,0,0,0,0,0,0,0,0,0,0,0],"split_type":[0,0,0,0,0,0,0,0,0,0,0,0,0,0,0,0,0,0,0,0,0,0,0,0,0,0,0,0,0,0,0,0,0,0,0,0,0,0,0,0,0,0,0,0,0,0,0,0,0,0,0,0,0,0,0,0,0,0,0,0,0,0,0,0,0,0,0,0,0,0,0,0,0,0,0,0,0,0,0,0,0,0,0,0,0,0,0,0,0,0,0,0,0,0,0,0,0,0,0,0,0,0,0,0,0,0,0,0,0,0,0,0,0,0,0,0,0,0,0,0,0],"sum_hessian":[5.5339E4,1.9222E4,3.6117E4,7.68E3,1.1542E4,2.1741E4,1.4376E4,2.685E3,4.995E3,4.238E3,7.304E3,9.112E3,1.2629E4,4.81E3,9.566E3,1.091E3,1.594E3,6.58E2,4.337E3,3.024E3,1.214E3,2.973E3,4.331E3,1.242E3,7.87E3,3.681E3,8.948E3,2.491E3,2.319E3,5.401E3,4.165E3,5.02E2,5.89E2,5.04E2,1.09E3,4.98E2,1.6E2,1.622E3,2.715E3,6.45E2,2.379E3,8.37E2,3.77E2,1.687E3,1.286E3,4.055E3,2.76E2,8.69E2,3.73E2,5.658E3,2.212E3,1.875E3,1.806E3,6.61E2,8.287E3,1.426E3,1.065E3,9.71E2,1.348E3,2.746E3,2.655E3,3.548E3,6.17E2,9.2E1,9.98E2,4.49E2,4.9E1,5E1,1.1E2,5.22E2,1.1E3,1.616E3,1.099E3,1.08E2,5.37E2,1.011E3,1.368E3,2.1E1,8.16E2,2.81E2,9.6E1,1.29E3,3.97E2,2.37E2,1.049E3,1.939E3,2.116E3,2.57E2,1.9E1,5.98E2,2.71E2,1.66E2,2.07E2,2.368E3,3.29E3,1.21E3,1.002E3,2.43E2,1.632E3,1.293E3,5.13E2,5.55E2,1.06E2,2.059E3,6.228E3,1.85E2,1.241E3,6.4E1,1.001E3,5.62E2,4.09E2,1.075E3,2.73E2,2.35E3,3.96E2,5.8E1,2.597E3,1.696E3,1.852E3,4.21E2,1.96E2],"tree_param":{"num_deleted":"0","num_feature":"14","num_nodes":"121","size_leaf_vector":"1"}},{"base_weights":[-7.5931717E-3,-2.0141926E0,1.2004908E0,-3.2319744E0,-1.1710633E0,6.434197E-1,2.3635752E0,-4.3180056E0,-2.7307336E0,-4.1271195E-1,-1.7050698E0,2.8449187E-1,1.1605535E0,4.0126944E0,1.5014384E0,-4.8349013E0,-3.9512088E0,-1.5204272E0,-2.9338455E0,-8.0165595E-1,1.5231952E-1,-2.0450659E0,-1.3114045E0,1.5459003E0,6.875261E-2,2.693731E0,6.4326257E-1,4.545813E0,3.187956E0,1.9426094E0,1.105534E0,-6.3147974E-1,-5.813828E-1,-5.403866E-1,-3.8169658E0,-1.716713E0,-9.0894383E-1,-3.2585196E0,-2.7272115E0,-2.2359036E-1,-9.5495105E-1,-4.0487193E-2,6.580023E-1,-2.2099686E0,-1.797031E0,-1.4723908E0,-7.8627706E-1,9.6179855E-1,2.1372178E0,-2.9459018E-1,4.3742874E-1,2.3682225E0,3.1603453E0,1.1311728E0,3.7541664E-1,3.9223263E0,5.4221215E0,2.5315344E0,3.5840044E0,1.6373535E0,2.5981717E0,8.475898E-1,1.3444486E0,-4.201122E-1,-4.9303472E-1,-2.390349E-1,-1.5733661E-1,8.972506E-2,-1.3370168E-1,-4.4182628E-1,-4.0000126E-1,-3.6926916E-1,-3.3204755E-1,2.884986E-1,-3.355595E-2,-1.3855092E-1,-8.864985E-2,3.9708935E-2,-3.8201638E-2,1.3660675E-1,-1.7090423E-2,-2.914051E-1,-2.4490197E-1,-2.3377456E-1,-1.283759E-1,-1.9641452E-1,-1.4657457E-1,-1.2627973E-1,-2.2780884E-2,9.9477135E-2,4.4394606E-1,3.8790834E-1,2.4500877E-1,-1.8867267E-2,-8.955604E-2,1.4027311E-1,-5.728726E-3,3.2786018E-1,2.1376382E-1,4.6914414E-1,3.3163995E-1,3.931193E-1,1.2932648E-1,1.1640833E-1,2.9782217E-2,5.474495E-1,4.4386175E-1,8.472538E-1,6.626799E-1,4.741409E-1,3.0181915E-1,3.8947162E-1,5.3166217E-1,1.418754E-1,2.3042256E-1,2.8681967E-1,4.8265952E-1,6.5154684E-1,1.0451454E-1,1.3834952E-1,2.239086E-1],"categories":[],"categories_nodes":[],"categories_segments":[],"categories_sizes":[],"default_left":[0,0,0,0,0,0,0,0,0,0,0,0,0,0,0,0,0,0,0,0,0,0,0,0,0,0,0,0,0,0,0,0,0,0,0,0,0,0,0,0,0,0,0,0,0,0,0,0,0,0,0,0,0,0,0,0,0,0,0,0,0,0,0,0,0,0,0,0,0,0,0,0,0,0,0,0,0,0,0,0,0,0,0,0,0,0,0,0,0,0,0,0,0,0,0,0,0,0,0,0,0,0,0,0,0,0,0,0,0,0,0,0,0,0,0,0,0,0,0,0,0],"id":1,"left_children":[1,3,5,7,9,11,13,15,17,19,21,23,25,27,29,31,33,35,37,39,41,43,45,47,49,51,53,55,57,59,61,-1,-1,-1,63,65,67,69,71,73,75,77,79,81,83,85,87,89,91,93,95,97,99,101,103,105,107,109,111,113,115,117,119,-1,-1,-1,-1,-1,-1,-1,-1,-1,-1,-1,-1,-1,-1,-1,-1,-1,-1,-1,-1,-1,-1,-1,-1,-1,-1,-1,-1,-1,-1,-1,-1,-1,-1,-1,-1,-1,-1,-1,-1,-1,-1,-1,-1,-1,-1,-1,-1,-1,-1,-1,-1,-1,-1,-1,-1,-1,-1],"loss_changes":[1.3415922E5,2.1350508E4,2.2380895E4,4.6196484E3,4.976717E3,4.335421E3,1.5899281E4,4.8996094E2,1.4272383E3,1.1165312E3,9.6260547E2,3.7526396E3,7.5882246E3,1.6738945E3,1.2812676E3,1.3236328E1,4.440039E1,9.914099E1,3.256172E2,2.6642798E2,2.0204468E2,1.5423633E2,2.8162354E2,6.935591E2,1.5777266E3,3.5916992E2,9.34886E2,1.2517656E3,3.8374805E2,6.909424E2,2.3766406E2,0E0,0E0,0E0,1.5128906E1,4.5975586E1,4.7075592E1,3.7708984E1,5.5935547E1,6.2720657E1,8.049219E1,1.3692604E2,1.8734549E2,4.6051758E1,4.243213E1,5.4287598E1,9.7359924E1,4.620285E2,1.8950684E2,3.5452002E2,1.8683008E3,1.9573877E2,2.774746E2,5.7612354E2,3.5219568E2,2.084961E2,2.3176172E2,1.030332E2,2.787129E2,2.0912842E2,4.4792627E2,2.1867358E2,2.127107E2,0E0,0E0,0E0,0E0,0E0,0E0,0E0,0E0,0E0,0E0,0E0,0E0,0E0,0E0,0E0,0E0,0E0,0E0,0E0,0E0,0E0,0E0,0E0,0E0,0E0,0E0,0E0,0E0,0E0,0E0,0E0,0E0,0E0,0E0,0E0,0E0,0E0,0E0,0E0,0E0,0E0,0E0,0E0,0E0,0E0,0E0,0E0,0E0,0E0,0E0,0E0,0E0,0E0,0E0,0E0,0E0,0E0,0E0],"parents":[2147483647,0,0,1,1,2,2,3,3,4,4,5,5,6,6,7,7,8,8,9,9,10,10,11,11,12,12,13,13,14,14,15,15,16,16,17,17,18,18,19,19,20,20,21,21,22,22,23,23,24,24,25,25,26,26,27,27,28,28,29,29,30,30,34,34,35,35,36,36,37,37,38,38,39,39,40,40,41,41,42,42,43,43,44,44,45,45,46,46,47,47,48,48,49,49,50,50,51,51,52,52,53,53,54,54,55,55,56,56,57,57,58,58,59,59,60,60,61,61,62,62],"right_children":[2,4,6,8,10,12,14,16,18,20,22,24,26,28,30,32,34,36,38,40,42,44,46,48,50,52,54,56,58,60,62,-1,-1,-1,64,66,68,70,72,74,76,78,80,82,84,86,88,90,92,94,96,98,100,102,104,106,108,110,112,114,116,118,120,-1,-1,-1,-1,-1,-1,-1,-1,-1,-1,-1,-1,-1,-1,-1,-1,-1,-1,-1,-1,-1,-1,-1,-1,-1,-1,-1,-1,-1,-1,-1,-1,-1,-1,-1,-1,-1,-1,-1,-1,-1,-1,-1,-1,-1,-1,-1,-1,-1,-1,-1,-1,-1,-1,-1,-1,-1,-1],"split_conditions":[-3.7314042E-1,-1.1640654E0,8.5279316E-1,-1.5951194E0,1E0,3.7823823E-1,8.0712974E-1,-1.705466E0,1E0,1.0214442E0,-8.041945E-1,-3.8057405E-1,7.232732E-1,6.6511893E-1,1.0327619E0,-2.6832786E0,-2.3195412E0,-1.0658038E0,-1.3973882E0,8.917993E-1,-1.1506136E-1,-9.2678785E-1,1.05156E0,1.3861899E0,9.745988E-2,6.155157E-1,6.7408216E-1,1.3668944E0,1.2482556E0,1.5646256E0,1.2087094E0,-6.3147974E-1,-5.813828E-1,-5.403866E-1,1E0,1.0113454E0,-1.3620603E0,-1.6090852E0,-1.3182957E0,-5.1433265E-2,9.241368E-1,9.024132E-1,-5.3952944E-1,1.0113454E0,6.225107E-1,-1.1506136E-1,-1.1506136E-1,-3.0906782E-1,-7.111003E-1,1E0,1.7955439E-1,5.5152637E-1,4.3377241E-1,-1.2826395E-1,1.0355325E0,4.567621E-1,1.0677277E0,8.5953754E-1,1.1849227E0,8.412865E-1,1.2933426E0,2.4767812E-1,1.0132618E0,-4.201122E-1,-4.9303472E-1,-2.390349E-1,-1.5733661E-1,8.972506E-2,-1.3370168E-1,-4.4182628E-1,-4.0000126E-1,-3.6926916E-1,-3.3204755E-1,2.884986E-1,-3.355595E-2,-1.3855092E-1,-8.864985E-2,3.9708935E-2,-3.8201638E-2,1.3660675E-1,-1.7090423E-2,-2.914051E-1,-2.4490197E-1,-2.3377456E-1,-1.283759E-1,-1.9641452E-1,-1.4657457E-1,-1.2627973E-1,-2.2780884E-2,9.9477135E-2,4.4394606E-1,3.8790834E-1,2.4500877E-1,-1.8867267E-2,-8.955604E-2,1.4027311E-1,-5.728726E-3,3.2786018E-1,2.1376382E-1,4.6914414E-1,3.3163995E-1,3.931193E-1,1.2932648E-1,1.1640833E-1,2.9782217E-2,5.474495E-1,4.4386175E-1,8.472538E-1,6.626799E-1,4.741409E-1,3.0181915E-1,3.8947162E-1,5.3166217E-1,1.418754E-1,2.3042256E-1,2.8681967E-1,4.8265952E-1,6.5154684E-1,1.0451454E-1,1.3834952E-1,2.239086E-1],"split_indices":[6,6,6,6,8,6,11,3,8,11,6,4,11,11,11,1,0,2,6,10,2,6,11,11,6,6,4,6,6,6,6,0,0,0,8,11,4,2,6,11,11,10,4,11,13,2,2,3,4,8,4,11,11,4,11,11,12,12,10,10,10,4,10,0,0,0,0,0,0,0,0,0,0,0,0,0,0,0,0,0,0,0,0,0,0,0,0,0,0,0,0,0,0,0,0,0,0,0,0,0,0,0,0,0,0,0,0,0,0,0,0,0,0,0,0,0,0,0,0,0,0],"split_type":[0,0,0,0,0,0,0,0,0,0,0,0,0,0,0,0,0,0,0,0,0,0,0,0,0,0,0,0,0,0,0,0,0,0,0,0,0,0,0,0,0,0,0,0,0,0,0,0,0,0,0,0,0,0,0,0,0,0,0,0,0,0,0,0,0,0,0,0,0,0,0,0,0,0,0,0,0,0,0,0,0,0,0,0,0,0,0,0,0,0,0,0,0,0,0,0,0,0,0,0,0,0,0,0,0,0,0,0,0,0,0,0,0,0,0,0,0,0,0,0,0],"sum_hessian":[5.5341E4,2.0797E4,3.4544E4,8.507E3,1.229E4,2.3358E4,1.1186E4,2.684E3,5.823E3,5.079E3,7.211E3,1.3789E4,9.569E3,3.839E3,7.347E3,1.109E3,1.575E3,8.38E2,4.985E3,3.008E3,2.071E3,3.867E3,3.344E3,2.013E3,1.1776E4,2.413E3,7.156E3,2.329E3,1.51E3,3.473E3,3.874E3,7.67E2,3.42E2,4.93E2,1.082E3,6.33E2,2.05E2,1.933E3,3.052E3,6.31E2,2.377E3,1.5E3,5.71E2,2.318E3,1.549E3,2.558E3,7.86E2,1.014E3,9.99E2,5.931E3,5.845E3,1.425E3,9.88E2,2.535E3,4.621E3,1.364E3,9.65E2,5.71E2,9.39E2,2.372E3,1.101E3,1.865E3,2.009E3,9.9E1,9.83E2,4.75E2,1.58E2,1.6E1,1.89E2,7.08E2,1.225E3,1.281E3,1.771E3,9E0,6.22E2,1.576E3,8.01E2,6.36E2,8.64E2,3.75E2,1.96E2,1.835E3,4.83E2,1.48E3,6.9E1,2.111E3,4.47E2,5.88E2,1.98E2,9.47E2,6.7E1,1.9E2,8.09E2,4.363E3,1.568E3,2.462E3,3.383E3,1.1E3,3.25E2,5.1E2,4.78E2,1.42E2,2.393E3,9.64E2,3.657E3,7.37E2,6.27E2,1.46E2,8.19E2,6.7E1,5.04E2,4.96E2,4.43E2,5.81E2,1.791E3,8.53E2,2.48E2,1.1E1,1.854E3,1.234E3,7.75E2],"tree_param":{"num_deleted":"0","num_feature":"14","num_nodes":"121","size_leaf_vector":"1"}},{"base_weights":[4.2477245E-3,-1.7592696E0,1.0596621E0,-2.818104E0,-1.0244244E0,5.6188196E-1,2.093429E0,-3.7739084E0,-2.3799603E0,-3.632789E-1,-1.4879379E0,2.371726E-1,9.841437E-1,3.5089638E0,1.3141979E0,-4.222712E0,-3.4630604E0,-1.3678417E0,-2.5512145E0,-6.1847043E-1,2.8064784E-1,-1.766323E0,-1.1482031E0,1.3168762E0,4.715747E-2,2.1859999E0,4.911046E-1,4.179547E0,2.9276774E0,1.1081831E0,1.8855408E0,-5.560155E-1,-5.101889E-1,-3.666231E0,-3.3280966E0,-1.5473509E0,-8.8609195E-1,-2.8737655E0,-2.39809E0,-2.4894811E-1,-8.3815145E-1,-1.3230894E0,3.3954233E-1,-2.0190814E0,-1.639562E0,-1.2838562E0,-7.0582765E-1,1.6167284E0,3.3646134E-1,-3.5379264E-1,2.9764318E-1,2.4774516E0,1.696166E0,2.3325102E0,4.369219E-1,3.4220998E0,4.835046E0,2.2653956E0,3.3792036E0,1.4552325E0,9.180698E-1,1.5446188E0,2.60577E0,-4.0293783E-1,-4.7259808E-1,-3.7810308E-1,-4.2829946E-1,-2.4649575E-1,-1.69119E-1,1.2918833E-1,-1.2335209E-1,-4.0755484E-1,-3.572241E-1,-3.2327843E-1,-2.8965977E-1,-5.9462354E-2,4.9280496E-3,-1.2584229E-1,-6.99856E-2,-1.969431E-1,7.556965E-3,1.933334E-2,1.19485795E-1,-1.9912453E-1,-2.625832E-1,-1.8014392E-1,-2.2301368E-1,-1.7181541E-1,-1.266817E-1,-1.1768603E-1,-4.120421E-2,1.7789969E-1,3.1340325E-1,-3.830033E-3,2.324371E-1,-7.7688163E-3,-6.914321E-2,1.4026795E-1,5.6786328E-3,2.4028817E-1,3.765439E-1,1.0321553E-1,2.394729E-1,4.059918E-1,1.9903584E-1,1.0509992E-1,2.3911016E-2,5.1718056E-1,3.9404517E-1,6.539389E-1,5.2949226E-1,3.0641192E-1,2.1464671E-1,2.3931006E-1,4.53433E-1,1.2679528E-1,2.1099263E-1,1.0523302E-1,1.8299569E-1,1.0527889E-1,2.1530382E-1,3.8341677E-1,1.9452456E-1],"categories":[],"categories_nodes":[],"categories_segments":[],"categories_sizes":[],"default_left":[0,0,0,0,0,0,0,0,0,0,0,0,0,0,0,0,0,0,0,0,0,0,0,0,0,0,0,0,0,0,0,0,0,0,0,0,0,0,0,0,0,0,0,0,0,0,0,0,0,0,0,0,0,0,0,0,0,0,0,0,0,0,0,0,0,0,0,0,0,0,0,0,0,0,0,0,0,0,0,0,0,0,0,0,0,0,0,0,0,0,0,0,0,0,0,0,0,0,0,0,0,0,0,0,0,0,0,0,0,0,0,0,0,0,0,0,0,0,0,0,0,0,0],"id":2,"left_children":[1,3,5,7,9,11,13,15,17,19,21,23,25,27,29,31,33,35,37,39,41,43,45,47,49,51,53,55,57,59,61,-1,-1,63,65,67,69,71,73,75,77,79,81,83,85,87,89,91,93,95,97,99,101,103,105,107,109,111,113,115,117,119,121,-1,-1,-1,-1,-1,-1,-1,-1,-1,-1,-1,-1,-1,-1,-1,-1,-1,-1,-1,-1,-1,-1,-1,-1,-1,-1,-1,-1,-1,-1,-1,-1,-1,-1,-1,-1,-1,-1,-1,-1,-1,-1,-1,-1,-1,-1,-1,-1,-1,-1,-1,-1,-1,-1,-1,-1,-1,-1,-1,-1],"loss_changes":[1.0314814E5,1.6141488E4,1.783961E4,3.5506484E3,3.7534688E3,3.208607E3,1.242432E4,3.5786328E2,1.0071953E3,8.3001294E2,6.790215E2,2.7144097E3,6.0270615E3,1.5469648E3,8.535088E2,1.5732422E1,3.1207031E1,7.178955E1,2.393711E2,2.934087E2,1.3589236E2,1.2343945E2,1.9388525E2,5.8153564E2,1.1301692E3,4.182334E2,7.188384E2,9.044707E2,6.340801E2,3.5131982E2,4.6864307E2,0E0,0E0,8.017578E-1,6.875E-1,4.9885498E1,3.6752106E1,2.8438477E1,5.3001953E1,8.4397675E1,9.701428E1,1.569072E1,1.5525041E2,2.089209E1,6.297168E1,4.4428223E1,6.3158844E1,2.791897E2,2.533375E2,2.3872235E2,1.4064099E3,5.168496E2,1.7684277E2,1.303429E2,6.768981E2,1.6924707E2,1.7714844E2,6.57793E1,3.3111426E2,1.7197925E2,1.6472656E2,1.3387744E2,2.6261328E2,0E0,0E0,0E0,0E0,0E0,0E0,0E0,0E0,0E0,0E0,0E0,0E0,0E0,0E0,0E0,0E0,0E0,0E0,0E0,0E0,0E0,0E0,0E0,0E0,0E0,0E0,0E0,0E0,0E0,0E0,0E0,0E0,0E0,0E0,0E0,0E0,0E0,0E0,0E0,0E0,0E0,0E0,0E0,0E0,0E0,0E0,0E0,0E0,0E0,0E0,0E0,0E0,0E0,0E0,0E0,0E0,0E0,0E0,0E0,0E0],"parents":[2147483647,0,0,1,1,2,2,3,3,4,4,5,5,6,6,7,7,8,8,9,9,10,10,11,11,12,12,13,13,14,14,15,15,16,16,17,17,18,18,19,19,20,20,21,21,22,22,23,23,24,24,25,25,26,26,27,27,28,28,29,29,30,30,33,33,34,34,35,35,36,36,37,37,38,38,39,39,40,40,41,41,42,42,43,43,44,44,45,45,46,46,47,47,48,48,49,49,50,50,51,51,52,52,53,53,54,54,55,55,56,56,57,57,58,58,59,59,60,60,61,61,62,62],"right_children":[2,4,6,8,10,12,14,16,18,20,22,24,26,28,30,32,34,36,38,40,42,44,46,48,50,52,54,56,58,60,62,-1,-1,64,66,68,70,72,74,76,78,80,82,84,86,88,90,92,94,96,98,100,102,104,106,108,110,112,114,116,118,120,122,-1,-1,-1,-1,-1,-1,-1,-1,-1,-1,-1,-1,-1,-1,-1,-1,-1,-1,-1,-1,-1,-1,-1,-1,-1,-1,-1,-1,-1,-1,-1,-1,-1,-1,-1,-1,-1,-1,-1,-1,-1,-1,-1,-1,-1,-1,-1,-1,-1,-1,-1,-1,-1,-1,-1,-1,-1,-1,-1,-1],"split_conditions":[-3.7314042E-1,-1.1640654E0,8.5279316E-1,-1.5951194E0,1E0,3.3869198E-1,8.1758237E-1,-1.705466E0,1E0,1.0787627E0,-7.686029E-1,-3.8057405E-1,7.8498805E-1,6.020989E-1,1.119606E0,-2.7539382E0,-1.6118474E0,1.0113454E0,-1.4013427E0,9.4927967E-1,-1.0419459E0,-9.2998344E-1,1.05156E0,1E0,-5.3603514E-3,5.3577447E-1,3.3867862E-2,1.2087094E0,1.2601194E0,1.0012152E0,1.5646256E0,-5.560155E-1,-5.101889E-1,1E0,1E0,-1.52487E0,-1.8417045E0,-1.9285839E0,-1.3182957E0,1E0,-5.66917E-1,1.3870908E-1,1.2949975E0,8.917993E-1,9.8498714E-1,-1.1506136E-1,-2.508817E-1,-1.7570393E-1,-1.7224224E-2,-1.1312534E-1,-3.2386106E-2,2.8378505E-1,4.573307E-1,-1.4140145E-1,1.0896628E0,1.4400216E0,5.3577447E-1,1.0687557E0,8.79677E-1,8.412865E-1,1.8058577E0,9.081579E-1,1.0589284E0,-4.0293783E-1,-4.7259808E-1,-3.7810308E-1,-4.2829946E-1,-2.4649575E-1,-1.69119E-1,1.2918833E-1,-1.2335209E-1,-4.0755484E-1,-3.572241E-1,-3.2327843E-1,-2.8965977E-1,-5.9462354E-2,4.9280496E-3,-1.2584229E-1,-6.99856E-2,-1.969431E-1,7.556965E-3,1.933334E-2,1.19485795E-1,-1.9912453E-1,-2.625832E-1,-1.8014392E-1,-2.2301368E-1,-1.7181541E-1,-1.266817E-1,-1.1768603E-1,-4.120421E-2,1.7789969E-1,3.1340325E-1,-3.830033E-3,2.324371E-1,-7.7688163E-3,-6.914321E-2,1.4026795E-1,5.6786328E-3,2.4028817E-1,3.765439E-1,1.0321553E-1,2.394729E-1,4.059918E-1,1.9903584E-1,1.0509992E-1,2.3911016E-2,5.1718056E-1,3.9404517E-1,6.539389E-1,5.2949226E-1,3.0641192E-1,2.1464671E-1,2.3931006E-1,4.53433E-1,1.2679528E-1,2.1099263E-1,1.0523302E-1,1.8299569E-1,1.0527889E-1,2.1530382E-1,3.8341677E-1,1.9452456E-1],"split_indices":[6,6,6,6,8,6,11,3,8,11,6,4,11,11,10,0,4,11,6,10,10,2,11,8,6,11,3,6,6,11,6,0,0,8,8,1,0,0,6,7,6,13,11,10,10,2,2,3,6,4,4,3,6,5,11,12,11,0,10,10,6,6,11,0,0,0,0,0,0,0,0,0,0,0,0,0,0,0,0,0,0,0,0,0,0,0,0,0,0,0,0,0,0,0,0,0,0,0,0,0,0,0,0,0,0,0,0,0,0,0,0,0,0,0,0,0,0,0,0,0,0,0,0],"split_type":[0,0,0,0,0,0,0,0,0,0,0,0,0,0,0,0,0,0,0,0,0,0,0,0,0,0,0,0,0,0,0,0,0,0,0,0,0,0,0,0,0,0,0,0,0,0,0,0,0,0,0,0,0,0,0,0,0,0,0,0,0,0,0,0,0,0,0,0,0,0,0,0,0,0,0,0,0,0,0,0,0,0,0,0,0,0,0,0,0,0,0,0,0,0,0,0,0,0,0,0,0,0,0,0,0,0,0,0,0,0,0,0,0,0,0,0,0,0,0,0,0,0,0],"sum_hessian":[5.5417E4,2.0748E4,3.4669E4,8.499E3,1.2249E4,2.3402E4,1.1267E4,2.669E3,5.83E3,5.049E3,7.2E3,1.323E4,1.0172E4,3.999E3,7.268E3,1.087E3,1.582E3,8.45E2,4.985E3,3.616E3,1.433E3,3.955E3,3.245E3,1.979E3,1.1251E4,2.958E3,7.214E3,1.854E3,2.145E3,5.344E3,1.924E3,6.6E2,4.27E2,6.21E2,9.61E2,6.14E2,2.31E2,1.599E3,3.386E3,1.349E3,2.267E3,5E1,1.383E3,1.316E3,2.639E3,2.482E3,7.63E2,1.515E3,4.64E2,4.326E3,6.925E3,1.852E3,1.106E3,2.05E2,7.009E3,8.63E2,9.91E2,8.72E2,1.273E3,1.889E3,3.455E3,1.308E3,6.16E2,5.1E1,5.7E2,8.2E1,8.79E2,2.21E2,3.93E2,9E0,2.22E2,2.86E2,1.313E3,1.618E3,1.768E3,7.68E2,5.81E2,1.496E3,7.71E2,4.3E1,7E0,1.053E3,3.3E2,1.09E2,1.207E3,8.62E2,1.777E3,2.034E3,4.48E2,4.86E2,2.77E2,1.201E3,3.14E2,3.73E2,9.1E1,1.694E3,2.632E3,1.66E3,5.265E3,8.26E2,1.026E3,1.89E2,9.17E2,9.6E1,1.09E2,2.745E3,4.264E3,2.93E2,5.7E2,6.89E2,3.02E2,7.03E2,1.69E2,1.35E2,1.138E3,5.72E2,1.317E3,2.931E3,5.24E2,2.19E2,1.089E3,4.48E2,1.68E2],"tree_param":{"num_deleted":"0","num_feature":"14","num_nodes":"123","size_leaf_vector":"1"}},{"base_weights":[3.283142E-4,-1.6448094E0,8.6396676E-1,-2.5175738E0,-1.0251775E0,3.3375648E-1,1.6707278E0,-3.3213034E0,-2.1355731E0,-4.074352E-1,-1.3852578E0,-3.3785004E-2,6.0414016E-1,2.7876763E0,9.4758815E-1,-3.6674316E0,-3.0510404E0,-1.22312E0,-2.2701151E0,-7.425563E-1,-2.4102814E-2,-1.7288729E0,-1.1598058E0,1.1200379E0,-2.0526618E-1,1.415317E0,2.6617295E-1,3.2760472E0,2.1407082E0,6.8477196E-1,1.2952248E0,-4.9012104E-1,-3.5396786E0,-2.9475732E0,-4.1847616E-1,-1.4269658E0,-6.598037E-1,-2.5247326E0,-2.1134615E0,-1.9488895E-1,-8.421344E-1,-1.6528113E-1,6.41944E-1,-1.8429639E0,-1.5836604E0,-1.2186935E0,-4.6116465E-1,3.3217776E-1,1.6639917E0,-3.9526626E-2,-6.23781E-1,2.3894548E0,1.2691804E0,1.7578211E0,1.4883435E-1,2.6943173E0,3.9910874E0,1.612217E0,2.575173E0,8.841477E-1,4.1320643E-1,1.0764341E0,1.8791101E0,-4.528537E-1,-2.7632368E-1,-3.0903924E-1,-3.8294846E-1,-1.2767966E-1,-2.0501313E-1,-1.1693084E-1,6.0663957E-2,-3.432682E-1,-3.0828077E-1,-2.7977967E-1,-2.510034E-1,-1.0770963E-1,6.4444984E-3,-1.3489379E-1,-9.2009105E-2,2.6502896E-2,-5.0165046E-2,3.0120713E-1,4.3365173E-2,-2.3882243E-1,-1.8017188E-1,4.226585E-2,-2.0478801E-1,-1.7237486E-1,-1.3364457E-1,2.9558498E-1,-6.511332E-2,2.067515E-2,3.090629E-1,1.6967072E-1,3.1655335E-1,4.582141E-2,-3.4343943E-2,-1.1048014E-1,-4.0544957E-2,2.7884108E-1,4.4429582E-1,1.0261111E-1,2.2606443E-1,2.4852647E-1,8.904425E-2,4.6991523E-2,-1.6515102E-2,4.6226346E-1,3.2051578E-1,4.684655E-1,6.209289E-1,3.574272E-1,1.919318E-1,2.671369E-1,3.792078E-1,9.3521684E-2,1.5200524E-1,8.717568E-2,3.75958E-2,1.6042748E-1,9.019608E-2,2.6652285E-1,1.345039E-1],"categories":[],"categories_nodes":[],"categories_segments":[],"categories_sizes":[],"default_left":[0,0,0,0,0,0,0,0,0,0,0,0,0,0,0,0,0,0,0,0,0,0,0,0,0,0,0,0,0,0,0,0,0,0,0,0,0,0,0,0,0,0,0,0,0,0,0,0,0,0,0,0,0,0,0,0,0,0,0,0,0,0,0,0,0,0,0,0,0,0,0,0,0,0,0,0,0,0,0,0,0,0,0,0,0,0,0,0,0,0,0,0,0,0,0,0,0,0,0,0,0,0,0,0,0,0,0,0,0,0,0,0,0,0,0,0,0,0,0,0,0,0,0],"id":3,"left_children":[1,3,5,7,9,11,13,15,17,19,21,23,25,27,29,31,33,35,37,39,41,43,45,47,49,51,53,55,57,59,61,-1,63,65,-1,67,69,71,73,75,77,79,81,83,85,87,89,91,93,95,97,99,101,103,105,107,109,111,113,115,117,119,121,-1,-1,-1,-1,-1,-1,-1,-1,-1,-1,-1,-1,-1,-1,-1,-1,-1,-1,-1,-1,-1,-1,-1,-1,-1,-1,-1,-1,-1,-1,-1,-1,-1,-1,-1,-1,-1,-1,-1,-1,-1,-1,-1,-1,-1,-1,-1,-1,-1,-1,-1,-1,-1,-1,-1,-1,-1,-1,-1,-1],"loss_changes":[7.880632E4,1.03233125E4,1.5557678E4,2.4266953E3,2.4836113E3,2.181251E3,1.1647762E4,2.2753906E2,6.571992E2,5.2847797E2,5.445381E2,1.8411093E3,3.4665386E3,1.7838477E3,7.991924E2,1.1432617E1,2.4645508E1,7.8635376E1,1.8149414E2,1.1954175E2,1.806463E2,4.3354492E1,1.7482373E2,5.15433E2,5.6189685E2,5.2639355E2,1.5623876E3,1.3319688E3,5.563281E2,2.6975684E2,4.794619E2,0E0,2.633789E0,2.1833984E1,0E0,3.7466187E1,5.474212E1,2.538379E1,2.9631836E1,5.4099506E1,4.7546387E1,1.3497119E2,1.736664E2,1.7319824E1,5.3108643E1,8.783447E1,4.6926888E1,1.7493803E2,1.9100293E2,5.3202234E2,1.7020447E2,9.986328E1,7.5551465E2,1.3040918E2,5.0615588E2,2.9112793E2,3.8527734E2,1.3663281E2,2.4986621E2,1.3261523E2,6.747385E1,1.8304004E2,1.7614746E2,0E0,0E0,0E0,0E0,0E0,0E0,0E0,0E0,0E0,0E0,0E0,0E0,0E0,0E0,0E0,0E0,0E0,0E0,0E0,0E0,0E0,0E0,0E0,0E0,0E0,0E0,0E0,0E0,0E0,0E0,0E0,0E0,0E0,0E0,0E0,0E0,0E0,0E0,0E0,0E0,0E0,0E0,0E0,0E0,0E0,0E0,0E0,0E0,0E0,0E0,0E0,0E0,0E0,0E0,0E0,0E0,0E0,0E0,0E0,0E0],"parents":[2147483647,0,0,1,1,2,2,3,3,4,4,5,5,6,6,7,7,8,8,9,9,10,10,11,11,12,12,13,13,14,14,15,15,16,16,17,17,18,18,19,19,20,20,21,21,22,22,23,23,24,24,25,25,26,26,27,27,28,28,29,29,30,30,32,32,33,33,35,35,36,36,37,37,38,38,39,39,40,40,41,41,42,42,43,43,44,44,45,45,46,46,47,47,48,48,49,49,50,50,51,51,52,52,53,53,54,54,55,55,56,56,57,57,58,58,59,59,60,60,61,61,62,62],"right_children":[2,4,6,8,10,12,14,16,18,20,22,24,26,28,30,32,34,36,38,40,42,44,46,48,50,52,54,56,58,60,62,-1,64,66,-1,68,70,72,74,76,78,80,82,84,86,88,90,92,94,96,98,100,102,104,106,108,110,112,114,116,118,120,122,-1,-1,-1,-1,-1,-1,-1,-1,-1,-1,-1,-1,-1,-1,-1,-1,-1,-1,-1,-1,-1,-1,-1,-1,-1,-1,-1,-1,-1,-1,-1,-1,-1,-1,-1,-1,-1,-1,-1,-1,-1,-1,-1,-1,-1,-1,-1,-1,-1,-1,-1,-1,-1,-1,-1,-1,-1,-1,-1,-1],"split_conditions":[-4.8782453E-1,-1.2036116E0,6.5506196E-1,-2.0514195E0,1E0,1.0141451E-1,8.566743E-1,-1.705466E0,1E0,9.9156106E-1,-9.2678785E-1,-5.5214494E-1,7.737555E-1,6.8525E-1,1.2087094E0,-1.7402235E0,4.2957964E0,1.0095174E0,-1.4013427E0,8.8237315E-1,-1.1506136E-1,-9.2998344E-1,1.1278572E0,1.1964766E0,1E0,-2.0395698E-1,-2.518959E-1,1.2087094E0,1.2087094E0,1.171133E0,1.119606E0,-4.9012104E-1,-1.626986E0,1E0,-4.1847616E-1,9.694863E-1,-1.0658038E0,-1.5199815E0,-1.2016242E0,8.7792194E-1,-5.225224E-1,9.024132E-1,-8.0630845E-1,1.0482692E0,-1.2908052E0,-6.895104E-1,-1.1475967E0,2.8963122E-1,1.6439717E0,-2.0395698E-1,-1.8331845E-1,-1.5253313E0,2.4904318E-1,1E0,1.3139722E0,-3.2386106E-2,2.0273166E0,6.3433504E-1,1.0914149E0,9.081579E-1,1.1185926E0,1.123348E0,1.1373256E0,-4.528537E-1,-2.7632368E-1,-3.0903924E-1,-3.8294846E-1,-1.2767966E-1,-2.0501313E-1,-1.1693084E-1,6.0663957E-2,-3.432682E-1,-3.0828077E-1,-2.7977967E-1,-2.510034E-1,-1.0770963E-1,6.4444984E-3,-1.3489379E-1,-9.2009105E-2,2.6502896E-2,-5.0165046E-2,3.0120713E-1,4.3365173E-2,-2.3882243E-1,-1.8017188E-1,4.226585E-2,-2.0478801E-1,-1.7237486E-1,-1.3364457E-1,2.9558498E-1,-6.511332E-2,2.067515E-2,3.090629E-1,1.6967072E-1,3.1655335E-1,4.582141E-2,-3.4343943E-2,-1.1048014E-1,-4.0544957E-2,2.7884108E-1,4.4429582E-1,1.0261111E-1,2.2606443E-1,2.4852647E-1,8.904425E-2,4.6991523E-2,-1.6515102E-2,4.6226346E-1,3.2051578E-1,4.684655E-1,6.209289E-1,3.574272E-1,1.919318E-1,2.671369E-1,3.792078E-1,9.3521684E-2,1.5200524E-1,8.717568E-2,3.75958E-2,1.6042748E-1,9.019608E-2,2.6652285E-1,1.345039E-1],"split_indices":[6,6,6,1,8,6,11,3,8,11,6,4,11,11,6,5,13,11,6,10,2,2,11,11,8,4,4,6,6,4,10,0,4,8,0,10,2,6,2,11,2,10,5,11,3,6,4,13,11,4,6,11,3,8,11,4,6,12,10,6,11,11,11,0,0,0,0,0,0,0,0,0,0,0,0,0,0,0,0,0,0,0,0,0,0,0,0,0,0,0,0,0,0,0,0,0,0,0,0,0,0,0,0,0,0,0,0,0,0,0,0,0,0,0,0,0,0,0,0,0,0,0,0],"split_type":[0,0,0,0,0,0,0,0,0,0,0,0,0,0,0,0,0,0,0,0,0,0,0,0,0,0,0,0,0,0,0,0,0,0,0,0,0,0,0,0,0,0,0,0,0,0,0,0,0,0,0,0,0,0,0,0,0,0,0,0,0,0,0,0,0,0,0,0,0,0,0,0,0,0,0,0,0,0,0,0,0,0,0,0,0,0,0,0,0,0,0,0,0,0,0,0,0,0,0,0,0,0,0,0,0,0,0,0,0,0,0,0,0,0,0,0,0,0,0,0,0,0,0],"sum_hessian":[5.5464E4,1.9093E4,3.6371E4,7.926E3,1.1167E4,2.1948E4,1.4423E4,2.551E3,5.375E3,4.113E3,7.054E3,9.303E3,1.2645E4,5.667E3,8.756E3,1.113E3,1.438E3,6.92E2,4.683E3,2.194E3,1.919E3,2.792E3,4.262E3,1.203E3,8.1E3,3.718E3,8.927E3,3.227E3,2.44E3,4.988E3,3.768E3,4.56E2,6.57E2,1.002E3,4.36E2,5.07E2,1.85E2,1.778E3,2.905E3,3.38E2,1.856E3,1.584E3,3.35E2,1.557E3,1.235E3,3.93E3,3.32E2,4.92E2,7.11E2,5.803E3,2.297E3,4.83E2,3.235E3,6.5E2,8.277E3,1.782E3,1.445E3,1.103E3,1.337E3,2.875E3,2.113E3,2.743E3,1.025E3,6.5E2,7E0,1E2,9.02E2,1.53E2,3.54E2,1.51E2,3.4E1,6.86E2,1.092E3,1.86E3,1.045E3,9.2E1,2.46E2,6.63E2,1.193E3,6.01E2,9.83E2,4.9E1,2.86E2,1.453E3,1.04E2,1.4E1,1.221E3,2.205E3,1.725E3,5E0,3.27E2,4.56E2,3.6E1,5.07E2,2.04E2,2.121E3,3.682E3,1.28E3,1.017E3,4.1E2,7.3E1,1.684E3,1.551E3,5.5E2,1E2,4.626E3,3.651E3,2.87E2,1.495E3,1.065E3,3.8E2,8.9E1,1.014E3,6.09E2,7.28E2,1.932E3,9.43E2,6.42E2,1.471E3,1.837E3,9.06E2,8.15E2,2.1E2],"tree_param":{"num_deleted":"0","num_feature":"14","num_nodes":"123","size_leaf_vector":"1"}},{"base_weights":[2.8522704E-3,-1.3363597E0,8.07248E-1,-2.1688948E0,-7.940419E-1,3.4437716E-1,1.4581069E0,-2.9329956E0,-1.8573627E0,-2.7900088E-1,-1.1513456E0,1.178244E0,2.4464001E-1,2.5506108E0,8.878394E-1,-3.1659596E0,-2.6546001E0,-1.0599003E0,-1.9792309E0,-5.272287E-1,9.203289E-2,-1.4099029E0,-9.075131E-1,6.38553E-1,1.6480454E0,-1.9672112E-1,4.613039E-1,3.0357225E0,2.082851E0,6.330185E-1,1.2117366E0,-3.2712662E0,-2.9715152E0,-2.6655495E0,-7.49345E-2,-5.0882465E-1,-1.2263165E0,-2.2214596E0,-1.8347989E0,-7.4738735E-1,-3.2229877E-1,-1.2746285E-1,3.5056105E-1,-1.5284973E0,-1.2273502E0,-1.0391302E0,-6.178789E-1,2.015636E0,4.4422552E-1,1.5319835E0,3.0869408E0,-5.5099335E-2,-5.018334E-1,1.129553E0,1.3198869E-1,2.5425088E0,3.723498E0,1.5673542E0,2.4973857E0,8.1096566E-1,3.677282E-1,1.758565E0,1.0191604E0,-4.1841596E-1,-2.737459E-1,-3.8223287E-1,-2.4629596E-1,-2.9555622E-1,-3.437101E-1,-7.865738E-2,2.4271621E-1,-1.4129353E-1,-2.500363E-1,-3.0351052E-1,-2.6882124E-1,-2.3467088E-1,1.1042712E-1,1.8072818E-1,-9.711456E-2,-6.3847266E-2,-2.508631E-3,-2.6788702E-2,1.1360824E-1,7.985366E-2,-4.9196207E-3,-1.227627E-2,-1.9643788E-1,6.468327E-2,-1.5923968E-1,-1.4221735E-1,-1.06143944E-1,-1.0051171E-1,-2.6437648E-2,7.408584E-2,3.0720538E-1,9.712747E-2,-3.6949612E-2,2.6709375E-1,1.5269946E-1,7.0291825E-2,4.407789E-1,-6.1268043E-2,2.4896761E-2,-6.884549E-2,2.3109647E-2,1.11375704E-1,2.0451874E-1,1.3501975E-1,8.874613E-3,3.7484685E-1,2.786173E-1,5.991364E-1,4.4516072E-1,3.4565997E-1,1.8909262E-1,4.6408156E-1,3.0021116E-1,2.8002262E-1,9.990949E-2,1.0150265E-1,4.0072396E-2,4.708585E-2,2.391552E-1,1.1018027E-1,1.9132628E-1],"categories":[],"categories_nodes":[],"categories_segments":[],"categories_sizes":[],"default_left":[0,0,0,0,0,0,0,0,0,0,0,0,0,0,0,0,0,0,0,0,0,0,0,0,0,0,0,0,0,0,0,0,0,0,0,0,0,0,0,0,0,0,0,0,0,0,0,0,0,0,0,0,0,0,0,0,0,0,0,0,0,0,0,0,0,0,0,0,0,0,0,0,0,0,0,0,0,0,0,0,0,0,0,0,0,0,0,0,0,0,0,0,0,0,0,0,0,0,0,0,0,0,0,0,0,0,0,0,0,0,0,0,0,0,0,0,0,0,0,0,0,0,0,0,0],"id":4,"left_children":[1,3,5,7,9,11,13,15,17,19,21,23,25,27,29,31,33,35,37,39,41,43,45,47,49,51,53,55,57,59,61,63,65,67,-1,69,71,73,75,77,79,81,83,85,87,89,91,93,95,97,99,101,103,105,107,109,111,113,115,117,119,121,123,-1,-1,-1,-1,-1,-1,-1,-1,-1,-1,-1,-1,-1,-1,-1,-1,-1,-1,-1,-1,-1,-1,-1,-1,-1,-1,-1,-1,-1,-1,-1,-1,-1,-1,-1,-1,-1,-1,-1,-1,-1,-1,-1,-1,-1,-1,-1,-1,-1,-1,-1,-1,-1,-1,-1,-1,-1,-1,-1,-1,-1,-1],"loss_changes":[5.955073E4,9.36416E3,1.0403936E4,1.9422109E3,2.3115986E3,1.6783647E3,8.9399375E3,1.4517773E2,5.6303516E2,4.740919E2,4.6632324E2,5.4559644E2,1.7241503E3,1.1105586E3,7.7770996E2,1.657129E1,2.2989746E1,7.0266235E1,1.7235547E2,1.3890015E2,1.1716808E2,7.601904E1,1.4497925E2,2.6804773E2,1.8765576E2,2.565133E2,2.6610916E3,8.094121E2,5.322373E2,2.4900562E2,4.3543848E2,2.024414E0,6.616211E0,4.9023438E0,0E0,4.8316216E1,4.936493E1,2.878711E1,4.7782227E1,4.6591736E1,8.6302505E1,9.4148056E1,1.01702095E2,3.6943848E1,5.329126E1,4.037256E1,8.345834E1,6.857864E1,2.0570139E2,1.9847388E2,7.773279E1,4.31961E2,4.898242E1,4.8356885E2,4.6845627E2,1.9361328E2,2.1178711E2,1.0434473E2,2.1860059E2,1.1867847E2,4.8359894E1,1.7456738E2,2.2813013E2,0E0,0E0,0E0,0E0,0E0,0E0,0E0,0E0,0E0,0E0,0E0,0E0,0E0,0E0,0E0,0E0,0E0,0E0,0E0,0E0,0E0,0E0,0E0,0E0,0E0,0E0,0E0,0E0,0E0,0E0,0E0,0E0,0E0,0E0,0E0,0E0,0E0,0E0,0E0,0E0,0E0,0E0,0E0,0E0,0E0,0E0,0E0,0E0,0E0,0E0,0E0,0E0,0E0,0E0,0E0,0E0,0E0,0E0,0E0,0E0,0E0,0E0],"parents":[2147483647,0,0,1,1,2,2,3,3,4,4,5,5,6,6,7,7,8,8,9,9,10,10,11,11,12,12,13,13,14,14,15,15,16,16,17,17,18,18,19,19,20,20,21,21,22,22,23,23,24,24,25,25,26,26,27,27,28,28,29,29,30,30,31,31,32,32,33,33,35,35,36,36,37,37,38,38,39,39,40,40,41,41,42,42,43,43,44,44,45,45,46,46,47,47,48,48,49,49,50,50,51,51,52,52,53,53,54,54,55,55,56,56,57,57,58,58,59,59,60,60,61,61,62,62],"right_children":[2,4,6,8,10,12,14,16,18,20,22,24,26,28,30,32,34,36,38,40,42,44,46,48,50,52,54,56,58,60,62,64,66,68,-1,70,72,74,76,78,80,82,84,86,88,90,92,94,96,98,100,102,104,106,108,110,112,114,116,118,120,122,124,-1,-1,-1,-1,-1,-1,-1,-1,-1,-1,-1,-1,-1,-1,-1,-1,-1,-1,-1,-1,-1,-1,-1,-1,-1,-1,-1,-1,-1,-1,-1,-1,-1,-1,-1,-1,-1,-1,-1,-1,-1,-1,-1,-1,-1,-1,-1,-1,-1,-1,-1,-1,-1,-1,-1,-1,-1,-1,-1,-1,-1,-1],"split_conditions":[-3.7314042E-1,-1.0658038E0,6.5506196E-1,-1.5922748E0,1E0,-3.8057405E-1,8.125112E-1,-2.4064205E0,1E0,1.0214442E0,-8.4374076E-1,-1.754092E-1,1.0141451E-1,6.020989E-1,1.2087094E0,-1.6894673E0,1E0,9.4927967E-1,-1.4013427E0,8.855029E-1,1E0,-9.900619E-1,1.0095174E0,-7.741778E-1,5.7402663E-2,1.3666166E-1,8.421443E-1,1.2087094E0,1.2087094E0,1.171133E0,9.271231E-1,1.0045296E0,1.0453393E0,1E0,-7.49345E-2,1.075251E0,2.744746E0,-1.4915179E0,-7.6464826E-1,-2.9441893E0,-6.8555576E-1,1.5657933E-1,9.749892E-1,8.653041E-1,-1.1475967E0,-2.508817E-1,-2.508817E-1,-3.8670206E-1,1E0,-5.3952944E-1,-7.7416426E-1,-1.754092E-1,6.86637E-1,4.573307E-1,-8.2326734E-1,1.9963095E0,1.2035482E0,5.040396E-1,8.644226E-1,3.2841733E-1,1.0012152E0,7.993952E-1,1.1243087E0,-4.1841596E-1,-2.737459E-1,-3.8223287E-1,-2.4629596E-1,-2.9555622E-1,-3.437101E-1,-7.865738E-2,2.4271621E-1,-1.4129353E-1,-2.500363E-1,-3.0351052E-1,-2.6882124E-1,-2.3467088E-1,1.1042712E-1,1.8072818E-1,-9.711456E-2,-6.3847266E-2,-2.508631E-3,-2.6788702E-2,1.1360824E-1,7.985366E-2,-4.9196207E-3,-1.227627E-2,-1.9643788E-1,6.468327E-2,-1.5923968E-1,-1.4221735E-1,-1.06143944E-1,-1.0051171E-1,-2.6437648E-2,7.408584E-2,3.0720538E-1,9.712747E-2,-3.6949612E-2,2.6709375E-1,1.5269946E-1,7.0291825E-2,4.407789E-1,-6.1268043E-2,2.4896761E-2,-6.884549E-2,2.3109647E-2,1.11375704E-1,2.0451874E-1,1.3501975E-1,8.874613E-3,3.7484685E-1,2.786173E-1,5.991364E-1,4.4516072E-1,3.4565997E-1,1.8909262E-1,4.6408156E-1,3.0021116E-1,2.8002262E-1,9.990949E-2,1.0150265E-1,4.0072396E-2,4.708585E-2,2.391552E-1,1.1018027E-1,1.9132628E-1],"split_indices":[6,2,6,3,8,4,11,0,8,11,6,6,6,11,6,5,7,10,6,11,7,6,11,4,3,4,11,6,6,4,11,11,10,8,0,11,13,5,6,10,6,2,10,10,4,2,2,2,8,4,12,6,1,6,10,12,12,0,12,4,11,10,10,0,0,0,0,0,0,0,0,0,0,0,0,0,0,0,0,0,0,0,0,0,0,0,0,0,0,0,0,0,0,0,0,0,0,0,0,0,0,0,0,0,0,0,0,0,0,0,0,0,0,0,0,0,0,0,0,0,0,0,0,0,0],"split_type":[0,0,0,0,0,0,0,0,0,0,0,0,0,0,0,0,0,0,0,0,0,0,0,0,0,0,0,0,0,0,0,0,0,0,0,0,0,0,0,0,0,0,0,0,0,0,0,0,0,0,0,0,0,0,0,0,0,0,0,0,0,0,0,0,0,0,0,0,0,0,0,0,0,0,0,0,0,0,0,0,0,0,0,0,0,0,0,0,0,0,0,0,0,0,0,0,0,0,0,0,0,0,0,0,0,0,0,0,0,0,0,0,0,0,0,0,0,0,0,0,0,0,0,0,0],"sum_hessian":[5.5278E4,2.0743E4,3.4535E4,8.181E3,1.2562E4,2.0183E4,1.4352E4,2.367E3,5.814E3,5.146E3,7.416E3,2.155E3,1.8028E4,4.921E3,9.431E3,1.283E3,1.084E3,7.72E2,5.042E3,3.083E3,2.063E3,3.597E3,3.819E3,1.004E3,1.151E3,5.936E3,1.2092E4,2.413E3,2.508E3,5.28E3,4.151E3,8.22E2,4.61E2,1.078E3,6E0,1.8E2,5.92E2,1.878E3,3.164E3,1.485E3,1.598E3,1.116E3,9.47E2,2.176E3,1.421E3,2.624E3,1.195E3,1.23E2,8.81E2,1.067E3,8.4E1,4.055E3,1.881E3,3.991E3,8.101E3,1.408E3,1.005E3,1.12E3,1.388E3,3.159E3,2.121E3,1.079E3,3.072E3,8.13E2,9E0,4.48E2,1.3E1,9.1E1,9.87E2,1.73E2,7E0,5.12E2,8E1,7.75E2,1.103E3,3.158E3,6E0,9E0,1.476E3,1.005E3,5.93E2,1.033E3,8.3E1,5.54E2,3.93E2,1.8E1,2.158E3,1.7E1,1.404E3,1.915E3,7.09E2,8.44E2,3.51E2,2.7E1,9.6E1,6.15E2,2.66E2,3.96E2,6.71E2,1.1E1,7.3E1,1.502E3,2.553E3,1.782E3,9.9E1,2.593E3,1.398E3,5.1E2,7.591E3,6.64E2,7.44E2,1.9E2,8.15E2,7.5E1,1.045E3,1.52E2,1.236E3,6E1,3.099E3,2.34E2,1.887E3,8.4E1,9.95E2,2.325E3,7.47E2],"tree_param":{"num_deleted":"0","num_feature":"14","num_nodes":"125","size_leaf_vector":"1"}},{"base_weights":[-4.4591967E-3,-1.1759428E0,7.0207834E-1,-1.9009714E0,-7.0232826E-1,3.9837277E-1,1.4730784E0,-2.504305E0,-1.5940305E0,-2.5661272E-1,-1.0104791E0,1.5565504E-1,7.0267856E-1,2.6395774E0,1.0492989E0,-2.736225E0,-2.2345495E0,-9.271998E-1,-1.7026943E0,-4.879528E-1,9.018512E-2,-1.2415645E0,-7.9039824E-1,6.748881E-1,-4.872233E-2,1.6668795E0,3.8995227E-1,2.3721128E0,3.447009E0,1.514954E0,7.896862E-1,-3.7525776E-1,-2.6447902E0,-2.244227E0,-1.1142861E0,-1.106249E0,-4.6911564E-1,-1.8130352E0,-1.5002741E0,-2.3337415E-1,-6.3137364E-1,-5.9410436E-3,6.287571E-1,-1.0311447E0,-1.3226826E0,-8.650964E-1,-3.8320115E-1,4.0056852E-1,1.3214909E0,-4.4711822E-1,7.634899E-2,1.3154018E0,1.969915E0,8.5766095E-1,2.1925949E-1,2.781897E0,1.983189E0,3.8117955E0,2.1065514E0,1.0382931E0,1.7530948E0,7.5479203E-1,2.3189962E0,-3.3864284E-1,-1.6271283E-1,-2.9167315E-1,-2.6124504E-1,-2.9691966E-2,-2.3420571E-1,-9.164477E-2,-1.552465E-1,2.7492455E-1,-7.5629786E-2,-2.3272973E-1,-9.021674E-2,-1.9250934E-1,1.6796263E-1,-1.1358261E-1,-2.0833652E-2,-1.06052995E-1,-6.0211904E-2,-2.7461576E-3,3.8399643E-1,1.4940518E-1,-5.745447E-4,-1.3801634E-1,-4.1595716E-2,-1.8178804E-1,-1.5039104E-1,-1.2537195E-1,-9.821014E-2,-7.6261945E-2,-7.104516E-3,-1.0451451E-2,1.0051927E-1,1.5827486E-1,3.87852E-1,-1.2815306E-1,-4.9391672E-2,4.3386884E-2,-3.322599E-2,2.518975E-1,1.1319782E-1,4.1281533E-1,2.3529118E-1,5.2155863E-2,1.3465275E-1,4.7457498E-2,7.1006804E-3,4.0660617E-1,3.0346966E-1,4.4578892E-1,2.3484872E-1,4.0617284E-1,5.302587E-1,3.497667E-2,3.1427112E-1,8.6954415E-2,1.9377448E-1,2.9757446E-1,1.9303894E-1,1.1699974E-1,6.203771E-2,7.977331E-1,2.503418E-1],"categories":[],"categories_nodes":[],"categories_segments":[],"categories_sizes":[],"default_left":[0,0,0,0,0,0,0,0,0,0,0,0,0,0,0,0,0,0,0,0,0,0,0,0,0,0,0,0,0,0,0,0,0,0,0,0,0,0,0,0,0,0,0,0,0,0,0,0,0,0,0,0,0,0,0,0,0,0,0,0,0,0,0,0,0,0,0,0,0,0,0,0,0,0,0,0,0,0,0,0,0,0,0,0,0,0,0,0,0,0,0,0,0,0,0,0,0,0,0,0,0,0,0,0,0,0,0,0,0,0,0,0,0,0,0,0,0,0,0,0,0,0,0,0,0],"id":5,"left_children":[1,3,5,7,9,11,13,15,17,19,21,23,25,27,29,31,33,35,37,39,41,43,45,47,49,51,53,55,57,59,61,-1,63,65,67,69,71,73,75,77,79,81,83,85,87,89,91,93,95,97,99,101,103,105,107,109,111,113,115,117,119,121,123,-1,-1,-1,-1,-1,-1,-1,-1,-1,-1,-1,-1,-1,-1,-1,-1,-1,-1,-1,-1,-1,-1,-1,-1,-1,-1,-1,-1,-1,-1,-1,-1,-1,-1,-1,-1,-1,-1,-1,-1,-1,-1,-1,-1,-1,-1,-1,-1,-1,-1,-1,-1,-1,-1,-1,-1,-1,-1,-1,-1,-1,-1],"loss_changes":[4.577248E4,7.1427715E3,8.0768926E3,1.5182539E3,1.7283975E3,1.8278618E3,4.816039E3,1.6717969E2,3.9340234E2,4.1289856E2,3.7744922E2,1.4611919E3,3.310461E3,5.526699E2,8.634087E2,2.024414E1,1.1440918E1,6.2307983E1,1.0194336E2,1.1256476E2,1.066517E2,6.05625E1,1.1567847E2,6.892854E2,4.923836E2,2.8381445E2,6.618794E2,3.0590234E2,3.068745E2,2.886582E2,2.4340381E2,0E0,1.1861328E1,6.023926E0,7.8487873E0,2.2817566E1,7.188013E1,3.8700195E1,4.551831E1,5.111381E1,6.2545227E1,8.23493E1,1.0725518E2,3.619568E1,3.687256E1,3.5357178E1,4.1684517E1,5.1110922E2,1.5626965E2,7.837601E1,6.686915E2,3.5051147E2,2.2216797E2,1.9675574E2,1.5195697E2,1.4759082E2,2.0900854E2,9.636084E1,9.111859E1,1.4561255E2,2.3331836E2,1.9566724E2,1.306264E2,0E0,0E0,0E0,0E0,0E0,0E0,0E0,0E0,0E0,0E0,0E0,0E0,0E0,0E0,0E0,0E0,0E0,0E0,0E0,0E0,0E0,0E0,0E0,0E0,0E0,0E0,0E0,0E0,0E0,0E0,0E0,0E0,0E0,0E0,0E0,0E0,0E0,0E0,0E0,0E0,0E0,0E0,0E0,0E0,0E0,0E0,0E0,0E0,0E0,0E0,0E0,0E0,0E0,0E0,0E0,0E0,0E0,0E0,0E0,0E0,0E0,0E0],"parents":[2147483647,0,0,1,1,2,2,3,3,4,4,5,5,6,6,7,7,8,8,9,9,10,10,11,11,12,12,13,13,14,14,15,15,16,16,17,17,18,18,19,19,20,20,21,21,22,22,23,23,24,24,25,25,26,26,27,27,28,28,29,29,30,30,32,32,33,33,34,34,35,35,36,36,37,37,38,38,39,39,40,40,41,41,42,42,43,43,44,44,45,45,46,46,47,47,48,48,49,49,50,50,51,51,52,52,53,53,54,54,55,55,56,56,57,57,58,58,59,59,60,60,61,61,62,62],"right_children":[2,4,6,8,10,12,14,16,18,20,22,24,26,28,30,32,34,36,38,40,42,44,46,48,50,52,54,56,58,60,62,-1,64,66,68,70,72,74,76,78,80,82,84,86,88,90,92,94,96,98,100,102,104,106,108,110,112,114,116,118,120,122,124,-1,-1,-1,-1,-1,-1,-1,-1,-1,-1,-1,-1,-1,-1,-1,-1,-1,-1,-1,-1,-1,-1,-1,-1,-1,-1,-1,-1,-1,-1,-1,-1,-1,-1,-1,-1,-1,-1,-1,-1,-1,-1,-1,-1,-1,-1,-1,-1,-1,-1,-1,-1,-1,-1,-1,-1,-1,-1,-1,-1,-1,-1],"split_conditions":[-3.7314042E-1,-1.0658038E0,9.3188566E-1,-1.5595278E0,1E0,3.7823823E-1,7.381153E-1,-1.626986E0,1E0,1.0214442E0,-8.4374076E-1,-2.0395698E-1,3.3598664E-1,1.8058577E0,9.393444E-1,-1.7402235E0,1E0,1.0113454E0,-1.3182957E0,9.694863E-1,2.075899E-2,9.694863E-1,1.096328E0,1.4412771E-2,-5.677047E-2,2.8378505E-1,9.440209E-1,5.3577447E-1,2.0817225E0,9.616733E-1,2.7114668E0,-3.7525776E-1,-1.5676523E0,-1.5285851E0,9.7244096E-1,9.4927967E-1,8.541853E-1,-1.1616023E0,-7.6464826E-1,-9.2998344E-1,-3.8670206E-1,1.6515325E0,-5.8242214E-1,-3.8670206E-1,-9.433503E-1,-6.4996415E-1,-2.508817E-1,1.1421533E0,1.582661E-1,-2.631189E-1,1.3139722E0,-1.2826395E-1,5.7779696E-2,6.155157E-1,1.2094393E0,2.169525E0,8.156162E-1,2.0273166E0,2.0905907E0,1.3789624E0,9.730512E-1,1.1373256E0,1.1556351E0,-3.3864284E-1,-1.6271283E-1,-2.9167315E-1,-2.6124504E-1,-2.9691966E-2,-2.3420571E-1,-9.164477E-2,-1.552465E-1,2.7492455E-1,-7.5629786E-2,-2.3272973E-1,-9.021674E-2,-1.9250934E-1,1.6796263E-1,-1.1358261E-1,-2.0833652E-2,-1.06052995E-1,-6.0211904E-2,-2.7461576E-3,3.8399643E-1,1.4940518E-1,-5.745447E-4,-1.3801634E-1,-4.1595716E-2,-1.8178804E-1,-1.5039104E-1,-1.2537195E-1,-9.821014E-2,-7.6261945E-2,-7.104516E-3,-1.0451451E-2,1.0051927E-1,1.5827486E-1,3.87852E-1,-1.2815306E-1,-4.9391672E-2,4.3386884E-2,-3.322599E-2,2.518975E-1,1.1319782E-1,4.1281533E-1,2.3529118E-1,5.2155863E-2,1.3465275E-1,4.7457498E-2,7.1006804E-3,4.0660617E-1,3.0346966E-1,4.4578892E-1,2.3484872E-1,4.0617284E-1,5.302587E-1,3.497667E-2,3.1427112E-1,8.6954415E-2,1.9377448E-1,2.9757446E-1,1.9303894E-1,1.1699974E-1,6.203771E-2,7.977331E-1,2.503418E-1],"split_indices":[6,2,6,6,8,6,11,4,8,11,6,4,4,6,11,5,7,11,6,10,2,10,11,6,6,3,11,11,5,10,6,0,5,4,11,10,10,5,6,2,2,13,4,2,5,6,2,11,3,3,11,4,13,6,11,12,12,6,6,2,12,11,0,0,0,0,0,0,0,0,0,0,0,0,0,0,0,0,0,0,0,0,0,0,0,0,0,0,0,0,0,0,0,0,0,0,0,0,0,0,0,0,0,0,0,0,0,0,0,0,0,0,0,0,0,0,0,0,0,0,0,0,0,0,0],"split_type":[0,0,0,0,0,0,0,0,0,0,0,0,0,0,0,0,0,0,0,0,0,0,0,0,0,0,0,0,0,0,0,0,0,0,0,0,0,0,0,0,0,0,0,0,0,0,0,0,0,0,0,0,0,0,0,0,0,0,0,0,0,0,0,0,0,0,0,0,0,0,0,0,0,0,0,0,0,0,0,0,0,0,0,0,0,0,0,0,0,0,0,0,0,0,0,0,0,0,0,0,0,0,0,0,0,0,0,0,0,0,0,0,0,0,0,0,0,0,0,0,0,0,0,0,0],"sum_hessian":[5.5299E4,2.0804E4,3.4495E4,8.219E3,1.2585E4,2.4748E4,9.747E3,2.769E3,5.45E3,5.145E3,7.44E3,1.3768E4,1.098E4,2.596E3,7.151E3,1.484E3,1.285E3,7.65E2,4.685E3,3.086E3,2.059E3,3.627E3,3.813E3,3.888E3,9.88E3,2.688E3,8.292E3,1.953E3,6.43E2,2.558E3,4.593E3,4.46E2,1.038E3,1.273E3,1.2E1,5.49E2,2.16E2,3.027E3,1.658E3,1.113E3,1.973E3,1.748E3,3.11E2,1.013E3,2.614E3,3.221E3,5.92E2,2.731E3,1.157E3,2.36E3,7.52E3,1.247E3,1.441E3,2.216E3,6.076E3,9.48E2,1.005E3,5.04E2,1.39E2,8.54E2,1.704E3,4.492E3,1.01E2,1.029E3,9E0,1.035E3,2.38E2,6E0,6E0,1.24E2,4.25E2,9E0,2.07E2,2.994E3,3.3E1,1.653E3,5E0,1.06E2,1.007E3,8.72E2,1.101E3,1.74E3,8E0,1.67E2,1.44E2,9.44E2,6.9E1,1.517E3,1.097E3,1.432E3,1.789E3,3.57E2,2.35E2,1.217E3,1.514E3,1.107E3,5E1,2.27E2,2.133E3,4.217E3,3.303E3,4.89E2,7.58E2,1.27E2,1.314E3,6.8E2,1.536E3,3.14E3,2.936E3,4.68E2,4.8E2,8.4E1,9.21E2,1.83E2,3.21E2,2.3E1,1.16E2,4.92E2,3.62E2,4.95E2,1.209E3,2.795E3,1.697E3,7E0,9.4E1],"tree_param":{"num_deleted":"0","num_feature":"14","num_nodes":"125","size_leaf_vector":"1"}},{"base_weights":[1.7613054E-3,-1.0198449E0,6.176557E-1,-1.6380876E0,-5.911129E-1,3.54506E-1,1.2825531E0,-2.1374004E0,-1.357953E0,-2.1557152E-1,-8.5846704E-1,1.4751293E-1,6.129515E-1,2.3185756E0,9.01611E-1,-2.4113922E0,-1.9374202E0,-7.819442E-1,-1.459433E0,-3.730132E-1,2.564297E-1,-1.0062189E0,-6.394527E-1,6.08369E-1,-3.661908E-2,1.42221E0,3.3789858E-1,2.0922573E0,3.0005648E0,1.3068004E0,6.9169384E-1,-2.5584972E0,-2.3124938E0,-1.5788298E0,-1.9717466E0,-8.640405E-1,-1.3088997E-1,-1.5922095E0,-1.3557732E0,-1.5354371E-1,-5.697105E-1,4.7453457E-1,-2.588792E-1,-1.106619E0,-8.8948894E-1,-7.9213446E-1,-4.7640464E-1,3.455386E-1,1.0973266E0,-3.3647153E-1,9.797239E-2,1.2640282E0,1.9567919E0,7.3695725E-1,1.7901951E-1,2.5013611E0,1.8046155E0,3.5399332E0,2.369711E0,1.0572568E0,1.675223E0,6.6237E-1,1.9367102E0,-3.3141914E-1,-2.7784365E-1,-2.9676878E-1,-1.6178693E-1,-2.1222913E-1,1.1353413E-1,-2.618521E-1,-2.3505811E-1,-1.15884475E-1,4.8121106E-2,-4.7205362E-2,2.733478E-1,-2.2457883E-1,-1.9524328E-1,-7.7988036E-2,-1.7448941E-1,-4.3369334E-2,7.1838014E-3,-9.082481E-2,-3.882197E-2,3.6869504E-2,1.6393673E-1,-1.4542992E-1,-1.637253E-2,-1.5509754E-1,-1.2606235E-1,7.960775E-2,-1.1513871E-1,-1.0716514E-1,-7.902263E-2,-7.469086E-2,-2.9907262E-2,1.4232828E-1,3.051218E-4,1.13075316E-1,2.2324371E-1,-1.2636042E-1,-3.779774E-2,5.610115E-2,-1.7420044E-2,1.3475317E-1,2.1273175E-1,3.9256603E-1,2.273218E-1,8.386866E-2,2.0462015E-1,3.5702117E-2,-4.2997333E-4,3.898973E-1,2.6132938E-1,3.9143276E-1,2.1851628E-1,3.0017635E-1,4.8168653E-1,3.57059E-1,2.345024E-1,7.089558E-2,1.6088575E-1,1.8878335E-1,3.3948043E-1,1.0203062E-1,5.4300148E-2,6.566374E-1,2.1644273E-1],"categories":[],"categories_nodes":[],"categories_segments":[],"categories_sizes":[],"default_left":[0,0,0,0,0,0,0,0,0,0,0,0,0,0,0,0,0,0,0,0,0,0,0,0,0,0,0,0,0,0,0,0,0,0,0,0,0,0,0,0,0,0,0,0,0,0,0,0,0,0,0,0,0,0,0,0,0,0,0,0,0,0,0,0,0,0,0,0,0,0,0,0,0,0,0,0,0,0,0,0,0,0,0,0,0,0,0,0,0,0,0,0,0,0,0,0,0,0,0,0,0,0,0,0,0,0,0,0,0,0,0,0,0,0,0,0,0,0,0,0,0,0,0,0,0,0,0],"id":6,"left_children":[1,3,5,7,9,11,13,15,17,19,21,23,25,27,29,31,33,35,37,39,41,43,45,47,49,51,53,55,57,59,61,63,65,67,69,71,73,75,77,79,81,83,85,87,89,91,93,95,97,99,101,103,105,107,109,111,113,115,117,119,121,123,125,-1,-1,-1,-1,-1,-1,-1,-1,-1,-1,-1,-1,-1,-1,-1,-1,-1,-1,-1,-1,-1,-1,-1,-1,-1,-1,-1,-1,-1,-1,-1,-1,-1,-1,-1,-1,-1,-1,-1,-1,-1,-1,-1,-1,-1,-1,-1,-1,-1,-1,-1,-1,-1,-1,-1,-1,-1,-1,-1,-1,-1,-1,-1,-1],"loss_changes":[3.480428E4,5.5136133E3,6.037676E3,1.1886914E3,1.2334614E3,1.3226626E3,3.8597021E3,1.6299512E2,3.1801465E2,3.7990778E2,2.3160303E2,1.1652123E3,2.4471074E3,3.9965234E2,6.077588E2,1.2807129E1,1.8723145E1,4.371524E1,6.171875E1,1.6537952E2,1.4387141E2,4.9222656E1,7.166724E1,5.033916E2,3.9602158E2,2.3336719E2,5.202723E2,2.2824805E2,2.1380273E2,2.2264844E2,1.7089185E2,2.1252441E0,8.981445E0,3.521695E1,1.3150879E1,4.0724182E1,5.1404766E1,1.8266113E1,2.3488281E1,7.099975E1,7.618494E1,1.348137E2,4.36809E1,2.8551025E1,4.080725E1,1.189447E1,3.692624E1,6.745077E2,1.8695837E2,7.94317E1,5.4334326E2,1.7881543E2,1.1858984E2,1.5971167E2,1.08111374E2,1.983789E2,1.2896875E2,8.960742E1,6.4276E1,1.4866309E2,1.852749E2,1.4981763E2,7.433377E1,0E0,0E0,0E0,0E0,0E0,0E0,0E0,0E0,0E0,0E0,0E0,0E0,0E0,0E0,0E0,0E0,0E0,0E0,0E0,0E0,0E0,0E0,0E0,0E0,0E0,0E0,0E0,0E0,0E0,0E0,0E0,0E0,0E0,0E0,0E0,0E0,0E0,0E0,0E0,0E0,0E0,0E0,0E0,0E0,0E0,0E0,0E0,0E0,0E0,0E0,0E0,0E0,0E0,0E0,0E0,0E0,0E0,0E0,0E0,0E0,0E0,0E0,0E0,0E0],"parents":[2147483647,0,0,1,1,2,2,3,3,4,4,5,5,6,6,7,7,8,8,9,9,10,10,11,11,12,12,13,13,14,14,15,15,16,16,17,17,18,18,19,19,20,20,21,21,22,22,23,23,24,24,25,25,26,26,27,27,28,28,29,29,30,30,31,31,32,32,33,33,34,34,35,35,36,36,37,37,38,38,39,39,40,40,41,41,42,42,43,43,44,44,45,45,46,46,47,47,48,48,49,49,50,50,51,51,52,52,53,53,54,54,55,55,56,56,57,57,58,58,59,59,60,60,61,61,62,62],"right_children":[2,4,6,8,10,12,14,16,18,20,22,24,26,28,30,32,34,36,38,40,42,44,46,48,50,52,54,56,58,60,62,64,66,68,70,72,74,76,78,80,82,84,86,88,90,92,94,96,98,100,102,104,106,108,110,112,114,116,118,120,122,124,126,-1,-1,-1,-1,-1,-1,-1,-1,-1,-1,-1,-1,-1,-1,-1,-1,-1,-1,-1,-1,-1,-1,-1,-1,-1,-1,-1,-1,-1,-1,-1,-1,-1,-1,-1,-1,-1,-1,-1,-1,-1,-1,-1,-1,-1,-1,-1,-1,-1,-1,-1,-1,-1,-1,-1,-1,-1,-1,-1,-1,-1,-1,-1,-1],"split_conditions":[-3.7314042E-1,-1.1640654E0,9.3188566E-1,-1.5555731E0,1E0,3.7823823E-1,7.381153E-1,-2.4064205E0,1E0,1.0933454E0,-7.2905666E-1,-2.0395698E-1,3.4860215E-1,1.8058577E0,9.32532E-1,-2.8408177E0,1E0,-9.2998344E-1,-1.357842E0,9.934946E-1,-5.622373E-1,-9.2678785E-1,9.271231E-1,-1.9811803E-1,-5.3603514E-3,8.356811E-1,9.636855E-1,4.925455E-1,1.4675719E0,1.3789624E0,2.7114668E0,1.0217254E0,1.0506587E0,-1.5250325E0,-1.5922748E0,-1.01635E0,1.1561238E0,-1.6090852E0,-1.4327072E0,2.3969688E-1,-5.66917E-1,1.3344941E0,-1.2731541E0,9.58209E-1,-1.1475967E0,-1.1506136E-1,-2.508817E-1,-5.5214494E-1,-1.6563851E-2,-2.7880877E-1,1.0045296E0,5.7992405E-1,-6.526707E-2,1.2431421E0,1.2846651E0,2.169525E0,7.499651E-1,1.0873303E0,1.5436006E0,9.5096594E-1,1.3274893E0,1.1373256E0,1.1556351E0,-3.3141914E-1,-2.7784365E-1,-2.9676878E-1,-1.6178693E-1,-2.1222913E-1,1.1353413E-1,-2.618521E-1,-2.3505811E-1,-1.15884475E-1,4.8121106E-2,-4.7205362E-2,2.733478E-1,-2.2457883E-1,-1.9524328E-1,-7.7988036E-2,-1.7448941E-1,-4.3369334E-2,7.1838014E-3,-9.082481E-2,-3.882197E-2,3.6869504E-2,1.6393673E-1,-1.4542992E-1,-1.637253E-2,-1.5509754E-1,-1.2606235E-1,7.960775E-2,-1.1513871E-1,-1.0716514E-1,-7.902263E-2,-7.469086E-2,-2.9907262E-2,1.4232828E-1,3.051218E-4,1.13075316E-1,2.2324371E-1,-1.2636042E-1,-3.779774E-2,5.610115E-2,-1.7420044E-2,1.3475317E-1,2.1273175E-1,3.9256603E-1,2.273218E-1,8.386866E-2,2.0462015E-1,3.5702117E-2,-4.2997333E-4,3.898973E-1,2.6132938E-1,3.9143276E-1,2.1851628E-1,3.0017635E-1,4.8168653E-1,3.57059E-1,2.345024E-1,7.089558E-2,1.6088575E-1,1.8878335E-1,3.3948043E-1,1.0203062E-1,5.4300148E-2,6.566374E-1,2.1644273E-1],"split_indices":[6,6,6,6,8,6,11,0,8,11,6,4,4,6,11,0,8,2,6,10,4,6,11,3,6,2,11,11,5,2,6,10,10,3,3,0,12,2,4,13,6,11,10,11,4,2,2,4,3,3,11,6,5,2,11,12,12,3,13,10,10,11,0,0,0,0,0,0,0,0,0,0,0,0,0,0,0,0,0,0,0,0,0,0,0,0,0,0,0,0,0,0,0,0,0,0,0,0,0,0,0,0,0,0,0,0,0,0,0,0,0,0,0,0,0,0,0,0,0,0,0,0,0,0,0,0,0],"split_type":[0,0,0,0,0,0,0,0,0,0,0,0,0,0,0,0,0,0,0,0,0,0,0,0,0,0,0,0,0,0,0,0,0,0,0,0,0,0,0,0,0,0,0,0,0,0,0,0,0,0,0,0,0,0,0,0,0,0,0,0,0,0,0,0,0,0,0,0,0,0,0,0,0,0,0,0,0,0,0,0,0,0,0,0,0,0,0,0,0,0,0,0,0,0,0,0,0,0,0,0,0,0,0,0,0,0,0,0,0,0,0,0,0,0,0,0,0,0,0,0,0,0,0,0,0,0,0],"sum_hessian":[5.5313E4,2.0804E4,3.4509E4,8.518E3,1.2286E4,2.4725E4,9.784E3,3.059E3,5.459E3,5.11E3,7.176E3,1.373E4,1.0995E4,2.629E3,7.155E3,1.286E3,1.773E3,8.19E2,4.64E3,3.832E3,1.278E3,4.283E3,2.893E3,3.919E3,9.811E3,2.788E3,8.207E3,1.977E3,6.52E2,2.44E3,4.715E3,5.07E2,7.79E2,1.59E2,1.614E3,7.27E2,9.2E1,2.028E3,2.612E3,1.812E3,2.02E3,8.98E2,3.8E2,2.298E3,1.985E3,1.492E3,1.401E3,2.55E3,1.369E3,3.039E3,6.772E3,2.154E3,6.34E2,2.336E3,5.871E3,8.13E2,1.164E3,3.49E2,3.03E2,1.457E3,9.83E2,4.608E3,1.07E2,4.53E2,5.4E1,7.67E2,1.2E1,1.54E2,5E0,9.78E2,6.36E2,7.02E2,2.5E1,8.4E1,8E0,5.32E2,1.496E3,4.4E1,2.568E3,9.59E2,8.53E2,1.313E3,7.07E2,7.32E2,1.66E2,4.8E1,3.32E2,1.187E3,1.111E3,1.7E1,1.968E3,1.163E3,3.29E2,9.64E2,4.37E2,7.85E2,1.765E3,1.037E3,3.32E2,1.74E2,2.865E3,2.755E3,4.017E3,1.426E3,7.28E2,8.3E1,5.51E2,2.142E3,1.94E2,3.779E3,2.092E3,3.62E2,4.51E2,7.6E1,1.088E3,6E1,2.89E2,1.65E2,1.38E2,4.23E2,1.034E3,8.23E2,1.6E2,2.911E3,1.697E3,6E0,1.01E2],"tree_param":{"num_deleted":"0","num_feature":"14","num_nodes":"127","size_leaf_vector":"1"}},{"base_weights":[-3.2630855E-5,-8.9463365E-1,5.369298E-1,-1.4803458E0,-5.526579E-1,2.1600328E-1,9.862164E-1,-1.9540513E0,-1.2669562E0,-2.1304134E-1,-7.7817935E-1,8.168259E-1,1.436416E-1,1.6768131E0,5.705203E-1,-2.137161E0,-1.7953459E0,-7.22996E-1,-1.3475345E0,-3.498356E-1,2.0044929E-1,-9.917193E-1,-6.474847E-1,1.0252519E0,5.9595622E-2,-1.1822318E-1,3.3867496E-1,1.9879239E0,1.2897747E0,4.0220734E-1,7.899053E-1,-2.2113886E0,-2.0186722E0,-1.803142E0,-1.5584588E-2,-9.237191E-1,-3.51032E-1,-1.520286E0,-1.2709717E0,1.7135471E-1,-4.263613E-1,7.2741884E-1,1.6948022E-2,-8.5137916E-1,-1.059788E0,-7.172708E-1,-4.1206396E-1,8.6636794E-1,1.6897209E0,-2.2467463E-1,1.152103E0,-3.186503E-1,4.3720692E-2,1.0085019E0,1.4373425E-1,1.7145991E0,2.5475793E0,1.0691602E0,1.7447823E0,1.7284443E0,3.8042456E-1,6.696677E-1,1.5142405E0,-2.947417E-1,-2.5076625E-1,-2.2413291E-1,-2.6365194E-1,-2.3222771E-1,-1.6550079E-1,-1.3487257E-1,-8.652303E-3,-2.4680749E-1,-3.310004E-2,-1.9517714E-1,-8.8449016E-2,-1.6275458E-1,3.013689E-2,2.1207769E-1,1.1480892E-2,-7.2629474E-2,-2.7711231E-2,4.651704E-2,1.9692834E-1,1.50527535E-2,-7.940337E-2,-1.12349294E-1,1.9312084E-2,-1.262991E-1,-1.5615381E-1,6.0476463E-2,-9.262302E-2,1.4809951E-1,-6.050307E-2,2.58021E-1,9.485776E-2,1.9346352E-1,4.5295158E-1,-6.8279006E-2,5.5465426E-2,3.5427046E-1,4.87908E-2,-2.6039397E-2,-7.492945E-2,7.595813E-2,-1.2631122E-2,8.706315E-2,1.8816036E-1,1.5121162E-1,1.35045815E-2,3.5665536E-1,2.1051034E-1,4.7909075E-1,3.018267E-1,1.9955285E-1,1.1760956E-1,3.9470106E-1,2.0163998E-1,7.092508E-2,3.4176004E-1,6.1745342E-2,2.054932E-2,9.8663084E-2,4.8849594E-2,1.7436919E-1,3.602374E-1],"categories":[],"categories_nodes":[],"categories_segments":[],"categories_sizes":[],"default_left":[0,0,0,0,0,0,0,0,0,0,0,0,0,0,0,0,0,0,0,0,0,0,0,0,0,0,0,0,0,0,0,0,0,0,0,0,0,0,0,0,0,0,0,0,0,0,0,0,0,0,0,0,0,0,0,0,0,0,0,0,0,0,0,0,0,0,0,0,0,0,0,0,0,0,0,0,0,0,0,0,0,0,0,0,0,0,0,0,0,0,0,0,0,0,0,0,0,0,0,0,0,0,0,0,0,0,0,0,0,0,0,0,0,0,0,0,0,0,0,0,0,0,0,0,0],"id":7,"left_children":[1,3,5,7,9,11,13,15,17,19,21,23,25,27,29,31,33,35,37,39,41,43,45,47,49,51,53,55,57,59,61,63,65,67,-1,69,71,73,75,77,79,81,83,85,87,89,91,93,95,97,99,101,103,105,107,109,111,113,115,117,119,121,123,-1,-1,-1,-1,-1,-1,-1,-1,-1,-1,-1,-1,-1,-1,-1,-1,-1,-1,-1,-1,-1,-1,-1,-1,-1,-1,-1,-1,-1,-1,-1,-1,-1,-1,-1,-1,-1,-1,-1,-1,-1,-1,-1,-1,-1,-1,-1,-1,-1,-1,-1,-1,-1,-1,-1,-1,-1,-1,-1,-1,-1,-1],"loss_changes":[2.6579195E4,4.1561934E3,4.985376E3,7.7081445E2,1.0035569E3,8.768477E2,4.1349824E3,6.515234E1,2.3032324E2,2.9595197E2,2.191377E2,3.421068E2,9.19547E2,6.492246E2,3.3182593E2,5.1845703E0,1.6449707E1,5.066974E1,5.884375E1,1.568588E2,1.2579383E2,2.7641602E1,8.0009766E1,1.7801099E2,1.4591492E2,2.4948569E2,1.3472745E3,4.543828E2,2.4055518E2,1.4644604E2,3.389944E2,1.1699463E1,1.8950195E0,9.144531E0,0E0,5.0697205E1,3.4424713E1,1.0818848E1,2.5737305E1,6.099156E1,1.0248181E2,9.896646E1,6.253239E1,2.9275024E1,2.173999E1,4.0962402E1,1.1047586E2,1.932699E2,9.9743286E1,7.668715E1,1.2030141E2,1.05609924E2,3.3510187E2,3.528601E2,3.1504474E2,1.3482861E2,2.0576855E2,1.1717566E2,1.6895972E2,8.9975174E1,1.13936646E2,9.956897E1,1.0299182E2,0E0,0E0,0E0,0E0,0E0,0E0,0E0,0E0,0E0,0E0,0E0,0E0,0E0,0E0,0E0,0E0,0E0,0E0,0E0,0E0,0E0,0E0,0E0,0E0,0E0,0E0,0E0,0E0,0E0,0E0,0E0,0E0,0E0,0E0,0E0,0E0,0E0,0E0,0E0,0E0,0E0,0E0,0E0,0E0,0E0,0E0,0E0,0E0,0E0,0E0,0E0,0E0,0E0,0E0,0E0,0E0,0E0,0E0,0E0,0E0,0E0,0E0],"parents":[2147483647,0,0,1,1,2,2,3,3,4,4,5,5,6,6,7,7,8,8,9,9,10,10,11,11,12,12,13,13,14,14,15,15,16,16,17,17,18,18,19,19,20,20,21,21,22,22,23,23,24,24,25,25,26,26,27,27,28,28,29,29,30,30,31,31,32,32,33,33,35,35,36,36,37,37,38,38,39,39,40,40,41,41,42,42,43,43,44,44,45,45,46,46,47,47,48,48,49,49,50,50,51,51,52,52,53,53,54,54,55,55,56,56,57,57,58,58,59,59,60,60,61,61,62,62],"right_children":[2,4,6,8,10,12,14,16,18,20,22,24,26,28,30,32,34,36,38,40,42,44,46,48,50,52,54,56,58,60,62,64,66,68,-1,70,72,74,76,78,80,82,84,86,88,90,92,94,96,98,100,102,104,106,108,110,112,114,116,118,120,122,124,-1,-1,-1,-1,-1,-1,-1,-1,-1,-1,-1,-1,-1,-1,-1,-1,-1,-1,-1,-1,-1,-1,-1,-1,-1,-1,-1,-1,-1,-1,-1,-1,-1,-1,-1,-1,-1,-1,-1,-1,-1,-1,-1,-1,-1,-1,-1,-1,-1,-1,-1,-1,-1,-1,-1,-1,-1,-1,-1,-1,-1,-1],"split_conditions":[-3.7314042E-1,-1.2392032E0,6.5506196E-1,-1.5689547E0,1E0,-3.8057405E-1,8.421443E-1,-1.705466E0,1E0,1.0896628E0,-9.2678785E-1,1E0,1.80507E-1,6.6511893E-1,1.2087094E0,-2.7539382E0,1E0,9.9834585E-1,-1.440889E0,8.243987E-1,-7.1494716E-1,9.77278E-1,-2.508817E-1,4.2822003E-1,-1.7224224E-2,1.5657933E-1,6.020989E-1,1.3668944E0,1.3789624E0,6.162357E-2,1.283723E0,9.8023826E-1,9.6250796E-1,-1.4732648E0,-1.5584588E-2,-1.2225097E0,-1.5067447E0,1.0419365E0,1.0933454E0,-8.4374076E-1,1E0,-5.7087165E-1,-3.8057405E-1,-3.8670206E-1,8.4330845E-1,-6.4442256E-3,-9.1294837E-1,-7.565161E-1,1.0723928E-1,1.2949975E0,-5.925145E-1,1E0,-1.2826395E-1,2.4904318E-1,1.6008766E-1,-6.526707E-2,1.0115012E0,9.730512E-1,8.0878955E-1,5.6404036E-1,1.2543955E0,1.1421533E0,1.9261502E0,-2.947417E-1,-2.5076625E-1,-2.2413291E-1,-2.6365194E-1,-2.3222771E-1,-1.6550079E-1,-1.3487257E-1,-8.652303E-3,-2.4680749E-1,-3.310004E-2,-1.9517714E-1,-8.8449016E-2,-1.6275458E-1,3.013689E-2,2.1207769E-1,1.1480892E-2,-7.2629474E-2,-2.7711231E-2,4.651704E-2,1.9692834E-1,1.50527535E-2,-7.940337E-2,-1.12349294E-1,1.9312084E-2,-1.262991E-1,-1.5615381E-1,6.0476463E-2,-9.262302E-2,1.4809951E-1,-6.050307E-2,2.58021E-1,9.485776E-2,1.9346352E-1,4.5295158E-1,-6.8279006E-2,5.5465426E-2,3.5427046E-1,4.87908E-2,-2.6039397E-2,-7.492945E-2,7.595813E-2,-1.2631122E-2,8.706315E-2,1.8816036E-1,1.5121162E-1,1.35045815E-2,3.5665536E-1,2.1051034E-1,4.7909075E-1,3.018267E-1,1.9955285E-1,1.1760956E-1,3.9470106E-1,2.0163998E-1,7.092508E-2,3.4176004E-1,6.1745342E-2,2.054932E-2,9.8663084E-2,4.8849594E-2,1.7436919E-1,3.602374E-1],"split_indices":[6,6,6,4,8,4,11,3,8,11,6,8,6,11,6,0,7,11,6,10,5,10,2,2,6,2,11,6,2,5,10,11,11,2,0,5,5,11,11,6,7,6,4,2,13,13,4,4,13,11,4,8,4,3,1,5,12,12,12,2,4,11,10,0,0,0,0,0,0,0,0,0,0,0,0,0,0,0,0,0,0,0,0,0,0,0,0,0,0,0,0,0,0,0,0,0,0,0,0,0,0,0,0,0,0,0,0,0,0,0,0,0,0,0,0,0,0,0,0,0,0,0,0,0,0],"split_type":[0,0,0,0,0,0,0,0,0,0,0,0,0,0,0,0,0,0,0,0,0,0,0,0,0,0,0,0,0,0,0,0,0,0,0,0,0,0,0,0,0,0,0,0,0,0,0,0,0,0,0,0,0,0,0,0,0,0,0,0,0,0,0,0,0,0,0,0,0,0,0,0,0,0,0,0,0,0,0,0,0,0,0,0,0,0,0,0,0,0,0,0,0,0,0,0,0,0,0,0,0,0,0,0,0,0,0,0,0,0,0,0,0,0,0,0,0,0,0,0,0,0,0,0,0],"sum_hessian":[5.5329E4,2.0753E4,3.4576E4,7.649E3,1.3104E4,2.017E4,1.4406E4,2.373E3,5.276E3,5.23E3,7.874E3,2.167E3,1.8003E4,5.412E3,8.994E3,1.096E3,1.277E3,6.82E2,4.594E3,3.93E3,1.3E3,2.987E3,4.887E3,1.699E3,4.68E2,7.685E3,1.0318E4,2.998E3,2.414E3,5.091E3,3.903E3,6.63E2,4.33E2,1.271E3,6E0,4.42E2,2.4E2,1.405E3,3.189E3,5.03E2,3.427E3,3.35E2,9.65E2,9.8E2,2.007E3,3.768E3,1.119E3,1.373E3,3.26E2,3.72E2,9.6E1,3.434E3,4.251E3,2.325E3,7.993E3,2.017E3,9.81E2,1.628E3,7.86E2,8.1E1,5.01E3,3.349E3,5.54E2,4.65E2,1.98E2,7.4E1,3.59E2,1.225E3,4.6E1,3.82E2,6E1,1.2E1,2.28E2,1.387E3,1.8E1,3.178E3,1.1E1,2.5E1,4.78E2,2.033E3,1.394E3,2.33E2,1.02E2,8.34E2,1.31E2,9.52E2,2.8E1,1.417E3,5.9E2,2.8E1,3.74E3,4.2E1,1.077E3,1.3E2,1.243E3,3E2,2.6E1,2.53E2,1.19E2,3E1,6.6E1,2.41E3,1.024E3,8.73E2,3.378E3,1.371E3,9.54E2,2.79E2,7.714E3,1.1E2,1.907E3,1.25E2,8.56E2,3.7E2,1.258E3,8.3E1,7.03E2,3.7E1,4.4E1,3.4E3,1.61E3,2.456E3,8.93E2,5E2,5.4E1],"tree_param":{"num_deleted":"0","num_feature":"14","num_nodes":"125","size_leaf_vector":"1"}},{"base_weights":[-3.5294055E-3,-7.6023996E-1,4.7568274E-1,-1.2618383E0,-4.4781205E-1,2.201793E-1,8.783787E-1,-1.0422693E0,-1.6431634E0,-1.5112162E-1,-6.8279546E-1,6.042914E-2,4.021277E-1,1.4524587E0,5.0749826E-1,-5.8998245E-1,-1.115425E0,-1.8179889E0,-1.4709376E0,-2.4885386E-1,1.8508226E-1,-8.245019E-1,-5.735222E-1,3.8228983E-1,-2.1551797E-2,8.533705E-1,1.4333037E-1,1.8250464E0,1.1817477E0,4.3146905E-1,9.774383E-1,-7.339594E-1,-2.0740658E-1,-1.1749927E0,-9.384637E-1,-1.8506373E0,-1.5294167E0,-1.171921E0,-1.5047648E0,-2.9351535E-1,4.0258592E-1,3.9817184E-1,-5.0258833E-1,-4.9343297E-1,-8.5560066E-1,-5.8557266E-1,7.880483E-1,9.926547E-2,8.880196E-1,-1.4125499E-1,2.0813464E-1,6.9476604E-1,1.3855019E0,4.534548E-1,-4.1170195E-3,1.5897604E0,2.3200057E0,8.069554E-1,1.449485E0,5.39431E-1,2.1052949E-1,2.9237456E0,8.830512E-1,-1.6030678E-1,-8.4092036E-2,-6.862752E-2,1.1321133E-1,-1.24949746E-1,-1.534968E-1,-1.2090927E-1,9.667983E-2,-2.4591775E-1,-2.2598548E-1,-1.8061955E-1,-2.6394302E-1,-1.6188706E-1,1.0556313E-1,-2.3564753E-1,-1.8790014E-1,-6.733106E-2,-2.0169936E-2,1.9948728E-1,1.8271908E-2,1.8429007E-1,3.857091E-2,-8.914531E-2,-1.0871242E-2,-6.932868E-2,5.3978775E-2,-8.3371975E-2,-1.1355866E-1,-8.0343135E-2,-3.7289347E-2,3.4695625E-1,4.1601226E-2,7.0229754E-2,-1.8482553E-2,4.4037607E-1,1.0688953E-1,-7.6116407E-3,-5.1274177E-2,6.7817755E-2,-1.1743547E-2,1.5277737E-1,4.946454E-2,2.9229528E-1,1.4597706E-1,1.4007983E-1,4.8685666E-2,1.2298707E-2,-3.0968001E-2,2.5006577E-1,1.5708034E-1,3.1386963E-1,7.481108E-3,5.8560748E-2,1.2554544E-1,1.6891186E-1,2.8072628E-1,1.18186764E-1,5.8307998E-2,2.564706E-1,2.2910409E-2,7.1956223E-1,2.8142104E-1,9.5633045E-2,2.1209131E-1],"categories":[],"categories_nodes":[],"categories_segments":[],"categories_sizes":[],"default_left":[0,0,0,0,0,0,0,0,0,0,0,0,0,0,0,0,0,0,0,0,0,0,0,0,0,0,0,0,0,0,0,0,0,0,0,0,0,0,0,0,0,0,0,0,0,0,0,0,0,0,0,0,0,0,0,0,0,0,0,0,0,0,0,0,0,0,0,0,0,0,0,0,0,0,0,0,0,0,0,0,0,0,0,0,0,0,0,0,0,0,0,0,0,0,0,0,0,0,0,0,0,0,0,0,0,0,0,0,0,0,0,0,0,0,0,0,0,0,0,0,0,0,0,0,0,0,0],"id":8,"left_children":[1,3,5,7,9,11,13,15,17,19,21,23,25,27,29,31,33,35,37,39,41,43,45,47,49,51,53,55,57,59,61,63,65,67,69,71,73,75,77,79,81,83,85,87,89,91,93,95,97,99,101,103,105,107,109,111,113,115,117,119,121,123,125,-1,-1,-1,-1,-1,-1,-1,-1,-1,-1,-1,-1,-1,-1,-1,-1,-1,-1,-1,-1,-1,-1,-1,-1,-1,-1,-1,-1,-1,-1,-1,-1,-1,-1,-1,-1,-1,-1,-1,-1,-1,-1,-1,-1,-1,-1,-1,-1,-1,-1,-1,-1,-1,-1,-1,-1,-1,-1,-1,-1,-1,-1,-1,-1],"loss_changes":[2.0065482E4,3.3617188E3,3.4856245E3,6.876963E2,9.216997E2,6.0249084E2,2.7993096E3,1.7232227E2,8.786426E1,1.9210085E2,1.1377319E2,2.9128815E2,1.1315968E3,5.1840137E2,2.850901E2,4.0057724E1,4.6321777E1,1.1189453E1,1.3611328E1,1.3188617E2,1.9318732E2,3.2627197E1,6.8864624E1,3.2067477E2,2.4195088E2,2.971328E2,2.816804E2,2.4902344E2,2.9906543E2,1.6399548E2,2.0169958E2,1.983722E1,7.328428E1,1.763623E1,1.9373962E1,4.7182617E0,6.6599426E0,3.206334E1,1.191333E1,1.3444351E2,8.7436424E1,1.0037207E2,2.5521019E1,1.3027748E1,2.0068115E1,5.367163E1,3.2136864E1,1.586102E2,9.9880554E1,1.2304748E2,2.930238E2,4.2007947E2,1.7420349E2,9.135391E1,1.002712E2,1.934414E2,2.2247852E2,7.6652954E1,1.6091284E2,1.467102E2,1.2527935E2,8.695871E1,1.09046875E2,0E0,0E0,0E0,0E0,0E0,0E0,0E0,0E0,0E0,0E0,0E0,0E0,0E0,0E0,0E0,0E0,0E0,0E0,0E0,0E0,0E0,0E0,0E0,0E0,0E0,0E0,0E0,0E0,0E0,0E0,0E0,0E0,0E0,0E0,0E0,0E0,0E0,0E0,0E0,0E0,0E0,0E0,0E0,0E0,0E0,0E0,0E0,0E0,0E0,0E0,0E0,0E0,0E0,0E0,0E0,0E0,0E0,0E0,0E0,0E0,0E0,0E0,0E0,0E0],"parents":[2147483647,0,0,1,1,2,2,3,3,4,4,5,5,6,6,7,7,8,8,9,9,10,10,11,11,12,12,13,13,14,14,15,15,16,16,17,17,18,18,19,19,20,20,21,21,22,22,23,23,24,24,25,25,26,26,27,27,28,28,29,29,30,30,31,31,32,32,33,33,34,34,35,35,36,36,37,37,38,38,39,39,40,40,41,41,42,42,43,43,44,44,45,45,46,46,47,47,48,48,49,49,50,50,51,51,52,52,53,53,54,54,55,55,56,56,57,57,58,58,59,59,60,60,61,61,62,62],"right_children":[2,4,6,8,10,12,14,16,18,20,22,24,26,28,30,32,34,36,38,40,42,44,46,48,50,52,54,56,58,60,62,64,66,68,70,72,74,76,78,80,82,84,86,88,90,92,94,96,98,100,102,104,106,108,110,112,114,116,118,120,122,124,126,-1,-1,-1,-1,-1,-1,-1,-1,-1,-1,-1,-1,-1,-1,-1,-1,-1,-1,-1,-1,-1,-1,-1,-1,-1,-1,-1,-1,-1,-1,-1,-1,-1,-1,-1,-1,-1,-1,-1,-1,-1,-1,-1,-1,-1,-1,-1,-1,-1,-1,-1,-1,-1,-1,-1,-1,-1,-1,-1,-1,-1,-1,-1,-1],"split_conditions":[-1.1506136E-1,-1.0658038E0,7.341544E-1,2.9326272E0,1E0,4.2822003E-1,8.566743E-1,1E0,-1.626986E0,1.1590399E0,-6.583427E-1,-3.8057405E-1,2.9309392E-1,6.020989E-1,1.8058577E0,1E0,-1.2335485E0,9.940121E-1,1E0,2.4881293E-3,-1.4724399E-2,8.7327975E-1,1.80507E-1,-2.8613868E-1,2.4378099E-1,2.8378505E-1,1.0482692E0,1.2431421E0,1.2087094E0,1.152457E0,1.2543955E0,-1.6090852E0,1.0235348E0,9.326946E-1,-7.6464826E-1,-2.7539382E0,1.0033585E0,-1.5071012E0,-2.2066946E0,8.7792194E-1,-6.526707E-2,-8.2326734E-1,7.660121E-1,8.686117E-1,9.08215E-1,1.1100733E0,1.806055E-2,-7.060541E-1,-8.8014805E-1,1E0,3.9654106E-1,-1.4340255E-1,2.0881672E-1,6.553162E-1,1.4996079E0,1.9060036E0,2.1938846E0,5.45404E-1,2.3950968E0,5.0567746E-1,6.162357E-2,6.134304E-1,2.7114668E0,-1.6030678E-1,-8.4092036E-2,-6.862752E-2,1.1321133E-1,-1.24949746E-1,-1.534968E-1,-1.2090927E-1,9.667983E-2,-2.4591775E-1,-2.2598548E-1,-1.8061955E-1,-2.6394302E-1,-1.6188706E-1,1.0556313E-1,-2.3564753E-1,-1.8790014E-1,-6.733106E-2,-2.0169936E-2,1.9948728E-1,1.8271908E-2,1.8429007E-1,3.857091E-2,-8.914531E-2,-1.0871242E-2,-6.932868E-2,5.3978775E-2,-8.3371975E-2,-1.1355866E-1,-8.0343135E-2,-3.7289347E-2,3.4695625E-1,4.1601226E-2,7.0229754E-2,-1.8482553E-2,4.4037607E-1,1.0688953E-1,-7.6116407E-3,-5.1274177E-2,6.7817755E-2,-1.1743547E-2,1.5277737E-1,4.946454E-2,2.9229528E-1,1.4597706E-1,1.4007983E-1,4.8685666E-2,1.2298707E-2,-3.0968001E-2,2.5006577E-1,1.5708034E-1,3.1386963E-1,7.481108E-3,5.8560748E-2,1.2554544E-1,1.6891186E-1,2.8072628E-1,1.18186764E-1,5.8307998E-2,2.564706E-1,2.2910409E-2,7.1956223E-1,2.8142104E-1,9.5633045E-2,2.1209131E-1],"split_indices":[2,2,6,13,8,2,11,8,4,11,2,4,4,11,6,7,0,11,8,3,4,12,6,6,6,3,11,2,6,11,4,2,11,12,6,0,12,3,2,11,5,10,10,12,10,11,13,4,4,8,4,4,5,11,11,12,2,4,6,13,5,12,6,0,0,0,0,0,0,0,0,0,0,0,0,0,0,0,0,0,0,0,0,0,0,0,0,0,0,0,0,0,0,0,0,0,0,0,0,0,0,0,0,0,0,0,0,0,0,0,0,0,0,0,0,0,0,0,0,0,0,0,0,0,0,0,0],"split_type":[0,0,0,0,0,0,0,0,0,0,0,0,0,0,0,0,0,0,0,0,0,0,0,0,0,0,0,0,0,0,0,0,0,0,0,0,0,0,0,0,0,0,0,0,0,0,0,0,0,0,0,0,0,0,0,0,0,0,0,0,0,0,0,0,0,0,0,0,0,0,0,0,0,0,0,0,0,0,0,0,0,0,0,0,0,0,0,0,0,0,0,0,0,0,0,0,0,0,0,0,0,0,0,0,0,0,0,0,0,0,0,0,0,0,0,0,0,0,0,0,0,0,0,0,0,0,0],"sum_hessian":[5.5332E4,2.1454E4,3.3878E4,8.233E3,1.3221E4,2.0728E4,1.315E4,5.227E3,3.006E3,5.844E3,7.377E3,1.1038E4,9.69E3,5.16E3,7.99E3,7.29E2,4.498E3,1.487E3,1.519E3,4.528E3,1.316E3,3.209E3,4.168E3,2.24E3,8.798E3,3.531E3,6.159E3,2.169E3,2.991E3,6.879E3,1.111E3,5.29E2,2E2,3.361E3,1.137E3,1.331E3,1.56E2,1.58E2,1.361E3,4.238E3,2.9E2,1.005E3,3.11E2,2.77E2,2.932E3,4.132E3,3.6E1,1.437E3,8.03E2,5.784E3,3.014E3,2.722E3,8.09E2,1.984E3,4.175E3,1.473E3,6.96E2,1.248E3,1.743E3,4.62E3,2.259E3,5E1,1.061E3,6.4E1,4.65E2,1.54E2,4.6E1,4.35E2,2.926E3,1.131E3,6E0,6.57E2,6.74E2,1.32E2,2.4E1,1.51E2,7E0,1.09E2,1.252E3,1.55E3,2.688E3,5.2E1,2.38E2,8.3E1,9.22E2,2.11E2,1E2,2.63E2,1.4E1,4.35E2,2.497E3,3.587E3,5.45E2,6E0,3E1,5.04E2,9.33E2,1.4E1,7.89E2,4.407E3,1.377E3,1.45E3,1.564E3,1.03E3,1.692E3,1.68E2,6.41E2,1.97E2,1.787E3,2.938E3,1.237E3,7.21E2,7.52E2,6.55E2,4.1E1,4.23E2,8.25E2,1.497E3,2.46E2,8.07E2,3.813E3,3.7E1,2.222E3,9E0,4.1E1,9.08E2,1.53E2],"tree_param":{"num_deleted":"0","num_feature":"14","num_nodes":"127","size_leaf_vector":"1"}},{"base_weights":[-1.7913927E-3,-8.4129614E-1,3.2819775E-1,-1.2960669E0,-6.554586E-1,8.134346E-2,7.097864E-1,-1.5768857E0,-1.1433457E0,-3.2376832E-1,-7.6454264E-1,1.7802799E-1,-2.7830112E-1,1.2276787E0,3.8093644E-1,-1.7159859E0,-1.5191002E0,-7.8903425E-1,-1.1871474E0,7.2223526E-1,-3.7171465E-1,-9.1869044E-1,-6.342184E-1,3.1476837E-1,-5.3243607E-2,-3.1413144E-1,7.192642E-1,1.137446E0,2.0328894E0,2.4216919E-1,5.622992E-1,-2.3070458E-1,-1.5605736E0,-1.5232842E0,-6.076945E-2,-8.5229343E-1,8.0447876E-1,-1.3134815E0,-1.0936387E0,1.4265399E0,-9.359001E-2,1.4425939E0,-3.9176962E-1,-2.5146714E-1,-9.3086463E-1,-5.2387935E-1,-7.0995086E-1,1.5303452E-1,7.270845E-1,1.3759762E-1,-2.504784E-1,-4.1632763E-1,-2.9413916E-2,2.1898499E0,3.694768E-1,1.5461411E0,9.477809E-1,2.6872332E0,1.4449759E0,2.3668574E-1,2.9190073E0,4.6052465E-1,9.86992E-1,-2.5927895E-1,-1.9028857E-1,-1.9660512E-1,-1.6177873E-1,5.7877705E-2,-1.1547596E-1,-9.7401515E-2,3.5214862E-1,-3.3873773E-1,-1.6594917E-1,-1.5027831E-1,-1.3141318E-1,1.0296988E-1,3.676387E-1,1.0940878E-1,-6.6241354E-2,-1.4550045E-1,2.9540995E-1,-6.815601E-2,-2.238147E-2,-6.0109347E-2,2.2888899E-1,-1.3119717E-1,-1.1369332E-1,-6.8678625E-2,5.7405457E-2,-9.152565E-2,6.127498E-2,6.8806924E-2,6.505966E-3,1.377741E-1,6.0519416E-2,-1.0012503E-1,1.9501653E-2,-5.5194616E-2,-2.3712339E-2,-6.138998E-2,2.3890186E-2,1.141016E-1,-1.4990698E-2,3.6594278E-1,8.9844845E-2,-2.732774E-1,6.0511988E-2,1.7186697E-1,2.6947135E-1,1.0233044E-1,1.6048335E-1,3.8760054E-1,2.2107053E-1,2.6429075E-1,1.04589045E-1,2.3292103E-1,2.9237283E-2,1.4734265E-1,5.3510636E-1,3.8306147E-1,5.676199E-2,3.607985E-1,1.1562032E-1],"categories":[],"categories_nodes":[],"categories_segments":[],"categories_sizes":[],"default_left":[0,0,0,0,0,0,0,0,0,0,0,0,0,0,0,0,0,0,0,0,0,0,0,0,0,0,0,0,0,0,0,0,0,0,0,0,0,0,0,0,0,0,0,0,0,0,0,0,0,0,0,0,0,0,0,0,0,0,0,0,0,0,0,0,0,0,0,0,0,0,0,0,0,0,0,0,0,0,0,0,0,0,0,0,0,0,0,0,0,0,0,0,0,0,0,0,0,0,0,0,0,0,0,0,0,0,0,0,0,0,0,0,0,0,0,0,0,0,0,0,0,0,0],"id":9,"left_children":[1,3,5,7,9,11,13,15,17,19,21,23,25,27,29,31,33,35,37,39,41,43,45,47,49,51,53,55,57,59,61,-1,63,65,-1,67,69,71,73,75,77,79,81,83,85,87,89,91,93,95,97,99,101,103,105,107,109,111,113,115,117,119,121,-1,-1,-1,-1,-1,-1,-1,-1,-1,-1,-1,-1,-1,-1,-1,-1,-1,-1,-1,-1,-1,-1,-1,-1,-1,-1,-1,-1,-1,-1,-1,-1,-1,-1,-1,-1,-1,-1,-1,-1,-1,-1,-1,-1,-1,-1,-1,-1,-1,-1,-1,-1,-1,-1,-1,-1,-1,-1,-1,-1],"loss_changes":[1.5371975E4,1.322377E3,3.7519888E3,1.9294678E2,4.0198877E2,8.4108154E2,2.664184E3,1.0230225E1,4.4768066E1,1.3833694E2,1.6746289E2,6.028682E2,1.8340918E2,4.3914648E2,2.4073914E2,3.8480225E0,4.2338867E0,3.3648666E1,2.9502441E1,6.9658844E1,9.636932E1,3.0876953E1,3.7532104E1,7.9878076E2,2.6667996E2,1.439599E2,9.075275E1,4.2223242E2,2.3116724E2,7.8924286E1,1.7883398E2,0E0,2.78479E0,3.3547363E0,0E0,2.2310349E1,4.200618E1,1.4665039E1,6.8757324E0,5.6276703E1,2.3542664E1,6.811847E1,8.028955E1,3.234349E1,1.3567139E1,2.6682678E1,2.5165771E1,3.3932495E2,3.005719E2,5.1049026E1,4.091626E1,1.4311047E2,1.06645645E2,3.230568E1,3.9281494E1,1.9188477E2,1.6768481E2,9.146265E1,1.25332825E2,6.342679E1,1.9927017E1,1.2994702E2,1.159884E2,0E0,0E0,0E0,0E0,0E0,0E0,0E0,0E0,0E0,0E0,0E0,0E0,0E0,0E0,0E0,0E0,0E0,0E0,0E0,0E0,0E0,0E0,0E0,0E0,0E0,0E0,0E0,0E0,0E0,0E0,0E0,0E0,0E0,0E0,0E0,0E0,0E0,0E0,0E0,0E0,0E0,0E0,0E0,0E0,0E0,0E0,0E0,0E0,0E0,0E0,0E0,0E0,0E0,0E0,0E0,0E0,0E0,0E0,0E0,0E0],"parents":[2147483647,0,0,1,1,2,2,3,3,4,4,5,5,6,6,7,7,8,8,9,9,10,10,11,11,12,12,13,13,14,14,15,15,16,16,17,17,18,18,19,19,20,20,21,21,22,22,23,23,24,24,25,25,26,26,27,27,28,28,29,29,30,30,32,32,33,33,35,35,36,36,37,37,38,38,39,39,40,40,41,41,42,42,43,43,44,44,45,45,46,46,47,47,48,48,49,49,50,50,51,51,52,52,53,53,54,54,55,55,56,56,57,57,58,58,59,59,60,60,61,61,62,62],"right_children":[2,4,6,8,10,12,14,16,18,20,22,24,26,28,30,32,34,36,38,40,42,44,46,48,50,52,54,56,58,60,62,-1,64,66,-1,68,70,72,74,76,78,80,82,84,86,88,90,92,94,96,98,100,102,104,106,108,110,112,114,116,118,120,122,-1,-1,-1,-1,-1,-1,-1,-1,-1,-1,-1,-1,-1,-1,-1,-1,-1,-1,-1,-1,-1,-1,-1,-1,-1,-1,-1,-1,-1,-1,-1,-1,-1,-1,-1,-1,-1,-1,-1,-1,-1,-1,-1,-1,-1,-1,-1,-1,-1,-1,-1,-1,-1,-1,-1,-1,-1,-1,-1,-1],"split_conditions":[-6.4996415E-1,-1.4013427E0,6.155157E-1,-2.3195412E0,1E0,1E0,8.614096E-1,-1.7402235E0,1E0,8.3618313E-1,-1.1245191E0,3.0066323E-1,4.217391E-1,2.0905907E0,9.640935E-1,9.779953E-1,1E0,1.0648558E0,-1.9720235E0,-1.0163956E0,-1.4559885E0,8.890453E-1,9.91957E-1,1.80507E-1,1.3248341E0,1.1836027E0,-3.995541E-2,5.0789523E-1,1.2215952E0,2.160975E0,1.6872189E0,-2.3070458E-1,-3.1883352E0,9.9672085E-1,-6.076945E-2,8.9252377E-1,-1.4103079E0,-2.695648E0,-1.6090852E0,-3.8670206E-1,9.4968677E-1,9.6746016E-1,1E0,-9.2998344E-1,-1.3374444E0,-7.102801E-1,1.2367642E0,-5.622373E-1,-3.2386106E-2,3.909023E-1,2.7654693E-1,2.4881293E-3,-7.237158E-1,3.3028078E-1,4.8527822E-1,1.2087094E0,1.2431421E0,2.044484E0,1.5031527E0,-7.03427E-2,1E0,-2.95216E-1,7.316062E-1,-2.5927895E-1,-1.9028857E-1,-1.9660512E-1,-1.6177873E-1,5.7877705E-2,-1.1547596E-1,-9.7401515E-2,3.5214862E-1,-3.3873773E-1,-1.6594917E-1,-1.5027831E-1,-1.3141318E-1,1.0296988E-1,3.676387E-1,1.0940878E-1,-6.6241354E-2,-1.4550045E-1,2.9540995E-1,-6.815601E-2,-2.238147E-2,-6.0109347E-2,2.2888899E-1,-1.3119717E-1,-1.1369332E-1,-6.8678625E-2,5.7405457E-2,-9.152565E-2,6.127498E-2,6.8806924E-2,6.505966E-3,1.377741E-1,6.0519416E-2,-1.0012503E-1,1.9501653E-2,-5.5194616E-2,-2.3712339E-2,-6.138998E-2,2.3890186E-2,1.141016E-1,-1.4990698E-2,3.6594278E-1,8.9844845E-2,-2.732774E-1,6.0511988E-2,1.7186697E-1,2.6947135E-1,1.0233044E-1,1.6048335E-1,3.8760054E-1,2.2107053E-1,2.6429075E-1,1.04589045E-1,2.3292103E-1,2.9237283E-2,1.4734265E-1,5.3510636E-1,3.8306147E-1,5.676199E-2,3.607985E-1,1.1562032E-1],"split_indices":[6,6,6,0,8,8,11,5,8,10,6,4,6,6,10,11,7,10,0,4,5,10,10,6,11,11,4,11,4,1,6,0,0,11,0,12,5,2,2,2,11,11,7,2,2,3,11,4,4,11,10,3,4,0,10,6,2,12,0,5,7,12,5,0,0,0,0,0,0,0,0,0,0,0,0,0,0,0,0,0,0,0,0,0,0,0,0,0,0,0,0,0,0,0,0,0,0,0,0,0,0,0,0,0,0,0,0,0,0,0,0,0,0,0,0,0,0,0,0,0,0,0,0],"split_type":[0,0,0,0,0,0,0,0,0,0,0,0,0,0,0,0,0,0,0,0,0,0,0,0,0,0,0,0,0,0,0,0,0,0,0,0,0,0,0,0,0,0,0,0,0,0,0,0,0,0,0,0,0,0,0,0,0,0,0,0,0,0,0,0,0,0,0,0,0,0,0,0,0,0,0,0,0,0,0,0,0,0,0,0,0,0,0,0,0,0,0,0,0,0,0,0,0,0,0,0,0,0,0,0,0,0,0,0,0,0,0,0,0,0,0,0,0,0,0,0,0,0,0],"sum_hessian":[5.5487E4,1.5656E4,3.9831E4,4.54E3,1.1116E4,2.4186E4,1.5645E4,1.596E3,2.944E3,2.752E3,8.364E3,1.9062E4,5.124E3,6.075E3,9.57E3,4.6E2,1.136E3,3.26E2,2.618E3,1.2E2,2.632E3,3.829E3,4.535E3,1.1979E4,7.083E3,4.947E3,1.77E2,5.465E3,6.1E2,5.423E3,4.147E3,2.81E2,1.79E2,1.131E3,5E0,3.14E2,1.2E1,1.108E3,1.51E3,6.4E1,5.6E1,2.8E1,2.604E3,6.9E1,3.76E3,1.849E3,2.686E3,8.605E3,3.374E3,3.6E3,3.483E3,3.64E3,1.307E3,3.3E1,1.44E2,1.73E3,3.735E3,2.87E2,3.23E2,5.413E3,1E1,3.347E3,8E2,1.9E1,1.6E2,1.05E3,8.1E1,1.2E1,3.02E2,7E0,5E0,8E0,1.1E3,6.37E2,8.73E2,4.6E1,1.8E1,1.7E1,3.9E1,7E0,2.1E1,1.568E3,1.036E3,6.3E1,6E0,1.07E3,2.69E3,1.822E3,2.7E1,2.669E3,1.7E1,1.796E3,6.809E3,1.405E3,1.969E3,5.8E1,3.542E3,9.09E2,2.574E3,3.286E3,3.54E2,1.13E2,1.194E3,2.2E1,1.1E1,5E0,1.39E2,1.284E3,4.46E2,2.547E3,1.188E3,2.08E2,7.9E1,1.6E2,1.63E2,2.4E1,5.389E3,5E0,5E0,1.9E1,3.328E3,3.2E1,7.68E2],"tree_param":{"num_deleted":"0","num_feature":"14","num_nodes":"123","size_leaf_vector":"1"}},{"base_weights":[1.3490818E-3,-5.8906406E-1,3.7610972E-1,-9.7599435E-1,-3.4956914E-1,2.1996905E-1,7.583118E-1,-1.2869742E0,-8.338009E-1,-4.4928107E-1,7.34889E-2,5.025767E-1,1.3861358E-1,1.2735263E0,4.8800024E-1,-1.4053984E0,-1.163519E0,-5.567787E-1,-8.776395E-1,-5.8054376E-1,-3.205222E-1,2.2934736E-1,-2.5751293E-1,-3.8588563E-1,8.2272756E-1,5.392352E-1,1.0524751E-1,1.6052066E0,1.0852916E0,4.0775582E-1,9.536144E-1,-1.0783738E0,-1.4274765E0,-1.1711147E0,3.7187722E-3,-2.120349E-1,-6.717241E-1,-9.9660105E-1,-8.17521E-1,-4.2939037E-1,-6.4550436E-1,-3.7673858E-1,-6.833112E-2,2.9856717E-2,4.1975698E-1,-3.7446404E-1,5.983805E-1,1.7782854E-1,-3.9313647E-1,6.273029E-1,1.116768E0,9.574833E-1,-4.1759317E-4,9.8797735E-3,2.9531923E-1,8.184164E-1,1.7976613E0,5.85895E-1,1.2112492E0,1.8530548E-1,5.0593287E-1,8.246929E-1,2.0135553E0,-1.8337786E-2,-1.5452768E-1,-1.8285373E-1,-5.1534686E-2,-1.6329357E-1,-1.4532244E-1,3.5352267E-2,-5.180326E-2,-7.025818E-2,-1.3896772E-1,-1.3634957E-1,-1.1783556E-1,-1.07209176E-1,-6.297139E-2,-6.1289653E-2,8.457863E-3,-9.434999E-2,-7.4943915E-2,-5.1431254E-2,2.4798734E-2,2.022223E-2,-8.685209E-2,-1.5504971E-3,1.1140726E-1,1.076504E-1,1.0606854E-2,-5.049292E-2,2.3654963E-1,2.6104864E-1,2.5592027E-2,-5.8740217E-2,-2.424914E-2,1.1917696E-1,2.7122473E-2,2.1175678E-1,1.1086973E-1,5.4738134E-2,1.5984061E-1,-1.6575756E-2,1.5104854E-1,1.7280161E-2,-6.679453E-3,6.7123376E-2,1.3917668E-2,2.0068353E-1,5.282812E-2,2.3834546E-1,8.300509E-2,1.5412687E-1,2.2592172E-2,3.5722807E-1,1.4412053E-1,9.972724E-2,1.5254862E-2,7.244177E-2,6.4147348E-3,5.559542E-1,1.01827405E-1,4.5801425E-1,1.7822556E-1],"categories":[],"categories_nodes":[],"categories_segments":[],"categories_sizes":[],"default_left":[0,0,0,0,0,0,0,0,0,0,0,0,0,0,0,0,0,0,0,0,0,0,0,0,0,0,0,0,0,0,0,0,0,0,0,0,0,0,0,0,0,0,0,0,0,0,0,0,0,0,0,0,0,0,0,0,0,0,0,0,0,0,0,0,0,0,0,0,0,0,0,0,0,0,0,0,0,0,0,0,0,0,0,0,0,0,0,0,0,0,0,0,0,0,0,0,0,0,0,0,0,0,0,0,0,0,0,0,0,0,0,0,0,0,0,0,0,0,0,0,0,0,0],"id":10,"left_children":[1,3,5,7,9,11,13,15,17,19,21,23,25,27,29,31,33,35,37,39,41,43,45,47,49,51,53,55,57,59,61,63,65,67,-1,69,71,73,75,77,79,81,83,85,87,89,91,-1,93,95,97,99,101,103,105,107,109,111,113,115,117,119,121,-1,-1,-1,-1,-1,-1,-1,-1,-1,-1,-1,-1,-1,-1,-1,-1,-1,-1,-1,-1,-1,-1,-1,-1,-1,-1,-1,-1,-1,-1,-1,-1,-1,-1,-1,-1,-1,-1,-1,-1,-1,-1,-1,-1,-1,-1,-1,-1,-1,-1,-1,-1,-1,-1,-1,-1,-1,-1,-1,-1],"loss_changes":[1.2255792E4,1.992666E3,2.0218789E3,3.6249805E2,5.604889E2,5.5304126E2,1.3679692E3,3.6055176E1,6.8065674E1,1.8153613E2,1.3083829E2,1.5297616E3,2.496553E2,2.0934619E2,2.4048999E2,7.9262695E0,1.1521362E1,3.052864E1,3.4028564E1,5.1989502E1,7.695691E1,6.5473495E1,8.150339E1,1.8943665E1,2.264497E2,3.241182E2,3.1261035E2,1.8356567E2,1.351604E2,1.2004535E2,1.27746216E2,1.0670258E1,7.4375E0,2.8885498E0,0E0,1.8638964E1,2.8683472E1,7.6063232E0,2.3906494E1,4.0733185E1,1.9865845E1,6.745422E1,1.378893E2,2.9895489E1,1.2591878E2,3.497853E1,5.605002E1,0E0,1.9363419E1,3.0260004E2,2.1067346E2,1.2592731E2,9.656305E1,8.983246E1,2.4779526E2,7.321817E1,7.905737E1,1.11012924E2,2.1916797E2,6.598749E1,1.0799396E2,7.4870056E1,9.4127045E1,0E0,0E0,0E0,0E0,0E0,0E0,0E0,0E0,0E0,0E0,0E0,0E0,0E0,0E0,0E0,0E0,0E0,0E0,0E0,0E0,0E0,0E0,0E0,0E0,0E0,0E0,0E0,0E0,0E0,0E0,0E0,0E0,0E0,0E0,0E0,0E0,0E0,0E0,0E0,0E0,0E0,0E0,0E0,0E0,0E0,0E0,0E0,0E0,0E0,0E0,0E0,0E0,0E0,0E0,0E0,0E0,0E0,0E0,0E0,0E0],"parents":[2147483647,0,0,1,1,2,2,3,3,4,4,5,5,6,6,7,7,8,8,9,9,10,10,11,11,12,12,13,13,14,14,15,15,16,16,17,17,18,18,19,19,20,20,21,21,22,22,23,23,24,24,25,25,26,26,27,27,28,28,29,29,30,30,31,31,32,32,33,33,35,35,36,36,37,37,38,38,39,39,40,40,41,41,42,42,43,43,44,44,45,45,46,46,48,48,49,49,50,50,51,51,52,52,53,53,54,54,55,55,56,56,57,57,58,58,59,59,60,60,61,61,62,62],"right_children":[2,4,6,8,10,12,14,16,18,20,22,24,26,28,30,32,34,36,38,40,42,44,46,48,50,52,54,56,58,60,62,64,66,68,-1,70,72,74,76,78,80,82,84,86,88,90,92,-1,94,96,98,100,102,104,106,108,110,112,114,116,118,120,122,-1,-1,-1,-1,-1,-1,-1,-1,-1,-1,-1,-1,-1,-1,-1,-1,-1,-1,-1,-1,-1,-1,-1,-1,-1,-1,-1,-1,-1,-1,-1,-1,-1,-1,-1,-1,-1,-1,-1,-1,-1,-1,-1,-1,-1,-1,-1,-1,-1,-1,-1,-1,-1,-1,-1,-1,-1,-1,-1,-1],"split_conditions":[-1.1506136E-1,-1.0658038E0,9.3188566E-1,-1.5777056E0,1E0,6.020989E-1,8.0206573E-1,-1.7018943E0,1E0,-7.2905666E-1,1.0609683E0,2.4881293E-3,-5.3952944E-1,5.3577447E-1,1.283723E0,1E0,1E0,9.4927967E-1,-1.4732648E0,9.694863E-1,1.1836027E0,-3.8670206E-1,-1.2795371E-1,-8.40356E-1,2.8378505E-1,8.3618313E-1,6.9986075E-1,6.9986075E-1,9.3379384E-1,8.3618313E-1,2.3950968E0,1.0025821E0,-1.4732648E0,9.75907E-1,3.7187722E-3,-1.4722152E0,1.0510162E0,-1.4407617E0,1.0355325E0,-3.8670206E-1,9.1536677E-1,2.4881293E-3,-7.023262E-2,1.037791E0,-5.622373E-1,8.042384E-1,-1.5349495E-1,1.7782854E-1,3.661174E-1,-3.2386106E-2,1.4400216E0,1.1464729E0,-4.211383E-1,1.7198507E-1,7.018363E-1,3.3570737E-1,1.3728337E0,7.919468E-1,6.5039617E-1,9.818763E-1,1.2282679E0,-1.667796E-1,1.0811418E0,-1.8337786E-2,-1.5452768E-1,-1.8285373E-1,-5.1534686E-2,-1.6329357E-1,-1.4532244E-1,3.5352267E-2,-5.180326E-2,-7.025818E-2,-1.3896772E-1,-1.3634957E-1,-1.1783556E-1,-1.07209176E-1,-6.297139E-2,-6.1289653E-2,8.457863E-3,-9.434999E-2,-7.4943915E-2,-5.1431254E-2,2.4798734E-2,2.022223E-2,-8.685209E-2,-1.5504971E-3,1.1140726E-1,1.076504E-1,1.0606854E-2,-5.049292E-2,2.3654963E-1,2.6104864E-1,2.5592027E-2,-5.8740217E-2,-2.424914E-2,1.1917696E-1,2.7122473E-2,2.1175678E-1,1.1086973E-1,5.4738134E-2,1.5984061E-1,-1.6575756E-2,1.5104854E-1,1.7280161E-2,-6.679453E-3,6.7123376E-2,1.3917668E-2,2.0068353E-1,5.282812E-2,2.3834546E-1,8.300509E-2,1.5412687E-1,2.2592172E-2,3.5722807E-1,1.4412053E-1,9.972724E-2,1.5254862E-2,7.244177E-2,6.4147348E-3,5.559542E-1,1.01827405E-1,4.5801425E-1,1.7822556E-1],"split_indices":[2,2,6,3,7,11,11,6,8,6,10,3,4,11,10,8,7,10,2,10,11,2,6,1,3,10,2,2,3,10,6,10,2,12,0,1,12,5,11,2,11,3,4,10,4,13,4,0,11,4,12,11,3,4,4,5,0,1,5,0,11,5,13,0,0,0,0,0,0,0,0,0,0,0,0,0,0,0,0,0,0,0,0,0,0,0,0,0,0,0,0,0,0,0,0,0,0,0,0,0,0,0,0,0,0,0,0,0,0,0,0,0,0,0,0,0,0,0,0,0,0,0,0],"split_type":[0,0,0,0,0,0,0,0,0,0,0,0,0,0,0,0,0,0,0,0,0,0,0,0,0,0,0,0,0,0,0,0,0,0,0,0,0,0,0,0,0,0,0,0,0,0,0,0,0,0,0,0,0,0,0,0,0,0,0,0,0,0,0,0,0,0,0,0,0,0,0,0,0,0,0,0,0,0,0,0,0,0,0,0,0,0,0,0,0,0,0,0,0,0,0,0,0,0,0,0,0,0,0,0,0,0,0,0,0,0,0,0,0,0,0,0,0,0,0,0,0,0,0],"sum_hessian":[5.5388E4,2.1506E4,3.3882E4,8.221E3,1.3285E4,2.4056E4,9.826E3,2.577E3,5.644E3,1.0751E4,2.534E3,5.376E3,1.868E4,3.38E3,6.446E3,1.31E3,1.267E3,7.73E2,4.871E3,5.322E3,5.429E3,1.723E3,8.11E2,1.424E3,3.952E3,1.435E3,1.7245E4,1.221E3,2.159E3,5.5E3,9.46E2,8.6E1,1.224E3,1.259E3,8E0,1.94E2,5.79E2,1.63E3,3.241E3,1.602E3,3.72E3,4.439E3,9.9E2,8.42E2,8.81E2,7.14E2,9.7E1,5E0,1.419E3,2.376E3,1.576E3,8.08E2,6.27E2,1.1484E4,5.761E3,2.41E2,9.8E2,4.36E2,1.723E3,1.685E3,3.815E3,8.45E2,1.01E2,1.1E1,7.5E1,1.216E3,8E0,2.73E2,9.86E2,5.5E1,1.39E2,4.51E2,1.28E2,8.08E2,8.22E2,3.023E3,2.18E2,1.452E3,1.5E2,1.409E3,2.311E3,4.242E3,1.97E2,7.23E2,2.67E2,8.03E2,3.9E1,3.89E2,4.92E2,7.08E2,6E0,2E1,7.7E1,1.064E3,3.55E2,1.364E3,1.012E3,4.91E2,1.085E3,2.91E2,5.17E2,5.66E2,6.1E1,3.805E3,7.679E3,2.57E3,3.191E3,8.3E1,1.58E2,9.22E2,5.8E1,1.72E2,2.64E2,8.2E1,1.641E3,1.66E2,1.519E3,3.357E3,4.58E2,5E0,8.4E2,2.7E1,7.4E1],"tree_param":{"num_deleted":"0","num_feature":"14","num_nodes":"123","size_leaf_vector":"1"}},{"base_weights":[1.6693181E-3,-4.709327E-1,3.519357E-1,-7.9641736E-1,-2.3579435E-1,6.267343E-1,1.5105738E-1,-6.674835E-1,-1.091606E0,-6.1698977E-2,-4.0212345E-1,-2.7552712E-1,7.2812057E-1,5.6894517E-1,9.543786E-2,-6.947312E-1,-9.87741E-2,-1.2164172E0,-9.693562E-1,-3.0936062E-1,8.413734E-2,-5.0460297E-1,-3.1327173E-1,1.815101E-1,-3.3845475E-1,6.117759E-1,1.1475179E0,4.583844E-1,1.1632434E0,2.2899294E-1,-1.4690064E-1,-7.1874875E-1,-4.060503E-1,-3.474805E-1,6.645542E-1,-1.3110394E0,-1.1480522E0,-2.829605E-1,-9.629514E-1,9.63941E-1,-3.397123E-1,1.9265293E-1,-1.1097277E-1,-6.314556E-1,-4.455472E-1,-4.1262996E-1,-1.5816228E-1,1.4565687E0,6.287636E-2,-3.60804E-1,1.1417396E0,8.0901986E-1,4.5912436E-1,1.602462E0,8.7678397E-1,2.5874552E-1,7.996433E-1,1.0379251E0,3.9893298E0,5.8204196E-2,3.5833728E-1,2.5551835E-1,-1.8853927E-1,-1.1248713E-1,-8.886217E-2,-1.1208769E-2,-7.1499355E-2,-1.3718437E-1,-1.838854E-2,2.4979794E-1,2.7361041E-2,-1.7794429E-1,-1.4415292E-1,-9.807311E-2,-1.4904894E-1,-6.0873803E-2,-1.2375457E-1,3.8908857E-1,2.1030119E-2,2.1943735E-1,-4.40647E-2,1.0624891E-2,1.0888863E-1,-2.2550015E-2,7.7216476E-2,-1.17154606E-1,-7.756823E-2,-6.54061E-2,-3.8786925E-2,-5.3809043E-2,8.480059E-2,1.5050505E-1,-2.5059184E-2,3.0588657E-1,5.7408553E-2,6.820645E-2,-2.4892632E-2,-3.21358E-2,-7.3192164E-2,3.381926E-1,2.1120606E-2,6.806407E-2,1.4559124E-1,1.5672898E-2,7.0778586E-2,-2.2395386E-1,2.1036138E-1,4.799592E-2,1.311911E-1,1.2979446E-1,1.746377E-2,1.2615466E-1,5.1720593E-2,4.2534787E-2,1.8828948E-1,3.2925025E-1,6.931781E-1,7.0559015E-3,2.813484E-1,3.9148558E-2,9.6323065E-2,1.2529514E-2,9.654039E-2,-9.398399E-3,-3.9297026E-2],"categories":[],"categories_nodes":[],"categories_segments":[],"categories_sizes":[],"default_left":[0,0,0,0,0,0,0,0,0,0,0,0,0,0,0,0,0,0,0,0,0,0,0,0,0,0,0,0,0,0,0,0,0,0,0,0,0,0,0,0,0,0,0,0,0,0,0,0,0,0,0,0,0,0,0,0,0,0,0,0,0,0,0,0,0,0,0,0,0,0,0,0,0,0,0,0,0,0,0,0,0,0,0,0,0,0,0,0,0,0,0,0,0,0,0,0,0,0,0,0,0,0,0,0,0,0,0,0,0,0,0,0,0,0,0,0,0,0,0,0,0,0,0,0,0],"id":11,"left_children":[1,3,5,7,9,11,13,15,17,19,21,23,25,27,29,31,33,35,37,39,41,43,45,47,49,51,53,55,57,59,61,63,65,67,69,71,73,-1,75,77,79,81,83,85,87,89,91,93,95,97,99,101,103,105,107,109,111,113,115,117,119,121,123,-1,-1,-1,-1,-1,-1,-1,-1,-1,-1,-1,-1,-1,-1,-1,-1,-1,-1,-1,-1,-1,-1,-1,-1,-1,-1,-1,-1,-1,-1,-1,-1,-1,-1,-1,-1,-1,-1,-1,-1,-1,-1,-1,-1,-1,-1,-1,-1,-1,-1,-1,-1,-1,-1,-1,-1,-1,-1,-1,-1,-1,-1],"loss_changes":[9.170397E3,1.8045591E3,1.7562383E3,3.756831E2,3.9645612E2,1.2292842E3,4.2719324E2,1.0663721E2,4.467163E1,2.4169197E2,6.359851E1,3.9117897E1,5.886885E2,1.4132617E2,5.2513214E2,4.5267334E1,6.0221825E1,8.088135E0,1.0051514E1,9.6171646E1,8.9199905E1,2.4065552E1,5.7773712E1,2.486714E1,3.9910904E1,2.8440503E2,3.215437E2,1.2392331E2,1.1556558E2,2.3104633E2,9.66475E1,2.1104004E1,2.4891876E1,3.522779E1,4.5008472E1,7.791992E0,5.9300537E0,0E0,5.0516357E0,9.622317E1,2.968509E1,1.9563014E2,7.116667E1,6.3030396E0,2.099228E1,2.3251404E1,7.551323E1,1.2193626E1,1.8618711E1,2.715155E1,2.609597E1,3.7713696E2,1.7191174E2,1.5749731E2,1.2478723E2,1.062748E2,4.9811646E1,9.990729E1,1.4465012E1,2.7717934E1,1.21099976E2,4.259518E1,7.175035E1,0E0,0E0,0E0,0E0,0E0,0E0,0E0,0E0,0E0,0E0,0E0,0E0,0E0,0E0,0E0,0E0,0E0,0E0,0E0,0E0,0E0,0E0,0E0,0E0,0E0,0E0,0E0,0E0,0E0,0E0,0E0,0E0,0E0,0E0,0E0,0E0,0E0,0E0,0E0,0E0,0E0,0E0,0E0,0E0,0E0,0E0,0E0,0E0,0E0,0E0,0E0,0E0,0E0,0E0,0E0,0E0,0E0,0E0,0E0,0E0,0E0,0E0],"parents":[2147483647,0,0,1,1,2,2,3,3,4,4,5,5,6,6,7,7,8,8,9,9,10,10,11,11,12,12,13,13,14,14,15,15,16,16,17,17,18,18,19,19,20,20,21,21,22,22,23,23,24,24,25,25,26,26,27,27,28,28,29,29,30,30,31,31,32,32,33,33,34,34,35,35,36,36,38,38,39,39,40,40,41,41,42,42,43,43,44,44,45,45,46,46,47,47,48,48,49,49,50,50,51,51,52,52,53,53,54,54,55,55,56,56,57,57,58,58,59,59,60,60,61,61,62,62],"right_children":[2,4,6,8,10,12,14,16,18,20,22,24,26,28,30,32,34,36,38,40,42,44,46,48,50,52,54,56,58,60,62,64,66,68,70,72,74,-1,76,78,80,82,84,86,88,90,92,94,96,98,100,102,104,106,108,110,112,114,116,118,120,122,124,-1,-1,-1,-1,-1,-1,-1,-1,-1,-1,-1,-1,-1,-1,-1,-1,-1,-1,-1,-1,-1,-1,-1,-1,-1,-1,-1,-1,-1,-1,-1,-1,-1,-1,-1,-1,-1,-1,-1,-1,-1,-1,-1,-1,-1,-1,-1,-1,-1,-1,-1,-1,-1,-1,-1,-1,-1,-1,-1,-1,-1,-1],"split_conditions":[-1.754092E-1,-9.2998344E-1,9.32532E-1,2.9326272E0,1E0,2.4881293E-3,-1.2826395E-1,1E0,-1.626986E0,9.241368E-1,9.241368E-1,-1.8629527E-1,1.3668944E0,5.6404036E-1,1.3248341E0,1.0355325E0,1.0235348E0,-1.7770321E0,-3.103109E0,-8.2326734E-1,-5.622373E-1,-8.041945E-1,-6.6182804E-1,4.925455E-1,8.7792194E-1,4.925455E-1,6.6511893E-1,2.5921128E0,1.24265045E-1,8.243987E-1,1.7198507E-1,-1.6090852E0,9.7129697E-1,8.042384E-1,9.222505E-1,1.0155437E0,1E0,-2.829605E-1,-1.6852933E0,2.6202844E-2,-1.2377366E0,1.3042215E0,4.2822003E-1,-1.117096E0,8.0712974E-1,1.2367642E0,-9.1294837E-1,1E0,-1.1506136E-1,1E0,6.964255E-2,2.6361236E-1,4.573307E-1,7.4337506E-1,9.535367E-1,-5.925145E-1,2.127426E-1,2.602111E-1,-2.367573E-1,2.8894248E0,1.8058577E0,4.2822003E-1,1.6177379E0,-1.1248713E-1,-8.886217E-2,-1.1208769E-2,-7.1499355E-2,-1.3718437E-1,-1.838854E-2,2.4979794E-1,2.7361041E-2,-1.7794429E-1,-1.4415292E-1,-9.807311E-2,-1.4904894E-1,-6.0873803E-2,-1.2375457E-1,3.8908857E-1,2.1030119E-2,2.1943735E-1,-4.40647E-2,1.0624891E-2,1.0888863E-1,-2.2550015E-2,7.7216476E-2,-1.17154606E-1,-7.756823E-2,-6.54061E-2,-3.8786925E-2,-5.3809043E-2,8.480059E-2,1.5050505E-1,-2.5059184E-2,3.0588657E-1,5.7408553E-2,6.820645E-2,-2.4892632E-2,-3.21358E-2,-7.3192164E-2,3.381926E-1,2.1120606E-2,6.806407E-2,1.4559124E-1,1.5672898E-2,7.0778586E-2,-2.2395386E-1,2.1036138E-1,4.799592E-2,1.311911E-1,1.2979446E-1,1.746377E-2,1.2615466E-1,5.1720593E-2,4.2534787E-2,1.8828948E-1,3.2925025E-1,6.931781E-1,7.0559015E-3,2.813484E-1,3.9148558E-2,9.6323065E-2,1.2529514E-2,9.654039E-2,-9.398399E-3,-3.9297026E-2],"split_indices":[6,2,11,13,8,3,4,7,4,11,11,4,6,2,11,11,11,6,2,10,4,6,6,11,11,11,11,11,13,10,4,2,10,13,10,10,8,0,3,0,5,11,2,3,11,11,4,9,2,8,0,3,6,10,10,4,1,12,4,6,6,2,11,0,0,0,0,0,0,0,0,0,0,0,0,0,0,0,0,0,0,0,0,0,0,0,0,0,0,0,0,0,0,0,0,0,0,0,0,0,0,0,0,0,0,0,0,0,0,0,0,0,0,0,0,0,0,0,0,0,0,0,0,0,0],"split_type":[0,0,0,0,0,0,0,0,0,0,0,0,0,0,0,0,0,0,0,0,0,0,0,0,0,0,0,0,0,0,0,0,0,0,0,0,0,0,0,0,0,0,0,0,0,0,0,0,0,0,0,0,0,0,0,0,0,0,0,0,0,0,0,0,0,0,0,0,0,0,0,0,0,0,0,0,0,0,0,0,0,0,0,0,0,0,0,0,0,0,0,0,0,0,0,0,0,0,0,0,0,0,0,0,0,0,0,0,0,0,0,0,0,0,0,0,0,0,0,0,0,0,0,0,0],"sum_hessian":[5.5396E4,2.358E4,3.1816E4,9.889E3,1.3691E4,1.3435E4,1.8381E4,6.885E3,3.004E3,6.69E3,7.001E3,1.357E3,1.2078E4,2.158E3,1.6223E4,6.57E3,3.15E2,1.482E3,1.522E3,2.479E3,4.211E3,3.249E3,3.752E3,1.64E2,1.193E3,9.457E3,2.621E3,1.821E3,3.37E2,1.0459E4,5.764E3,6.064E3,5.06E2,2.38E2,7.7E1,6.14E2,8.68E2,6E0,1.516E3,5.7E1,2.422E3,2.706E3,1.505E3,1.029E3,2.22E3,2.286E3,1.466E3,1.3E1,1.51E2,1.176E3,1.7E1,4.124E3,5.333E3,9.76E2,1.645E3,1.15E3,6.71E2,3.24E2,1.3E1,4.508E3,5.951E3,5.4E2,5.224E3,7.13E2,5.351E3,1.66E2,3.4E2,5.1E1,1.87E2,1.9E1,5.8E1,4.14E2,2E2,4.7E1,8.21E2,2.4E1,1.492E3,1.5E1,4.2E1,6E0,2.416E3,2.323E3,3.83E2,1.379E3,1.26E2,7.4E1,9.55E2,1.502E3,7.18E2,2.267E3,1.9E1,4E1,1.426E3,6E0,7E0,5.3E1,9.8E1,7.8E2,3.96E2,6E0,1.1E1,2.258E3,1.866E3,1.184E3,4.149E3,1.3E1,9.63E2,3.84E2,1.261E3,1.58E2,9.92E2,4.52E2,2.19E2,1.25E2,1.99E2,8E0,5E0,4.503E3,5E0,5.271E3,6.8E2,4.12E2,1.28E2,2.666E3,2.558E3],"tree_param":{"num_deleted":"0","num_feature":"14","num_nodes":"125","size_leaf_vector":"1"}},{"base_weights":[2.595381E-3,-4.4612944E-1,2.8897616E-1,-6.96967E-1,-2.3228076E-1,1.1662588E-1,4.9060246E-1,-9.85816E-1,-5.9747577E-1,-3.1016245E-1,6.418303E-2,3.0327934E-1,-5.254239E-3,8.9905465E-1,2.9426447E-1,-1.0636902E0,-8.552109E-1,-3.5029948E-1,-6.4152616E-1,-3.4602478E-1,-5.8701716E-2,-5.7171346E-3,5.828718E-1,1.5328376E-1,6.8966156E-1,1.1203742E-1,-1.5428767E-1,8.1001985E-1,1.3346603E0,4.1260567E-1,1.4245814E-1,-1.1664943E0,-1.0207704E0,-8.1496215E-1,-1.1337978E0,-4.3940398E-1,1.2690364E-1,-7.6530516E-1,-5.957692E-1,-3.5923275E-1,2.1618077E-1,1.2262611E0,-1.353444E-1,-5.666463E-1,8.331751E-2,7.684688E-1,-6.583842E-1,-1.8554631E-1,3.9893812E-1,5.846192E-1,1.5658776E0,-3.6733902E-1,1.7192815E-1,2.514041E-1,-1.846737E-1,9.1426355E-1,2.9588267E-1,1.6104256E0,6.3124335E-1,3.4297714E-1,7.946894E-1,1.8278426E0,1.2843125E-1,-2.232229E-1,-1.4644022E-1,-1.3322628E-1,-1.0363841E-1,-1.13560125E-1,-9.478582E-2,-9.516584E-2,-1.7952654E-1,-5.839012E-2,1.9514781E-1,1.3396068E-1,-1.4837575E-2,4.4001803E-2,-9.821059E-2,-7.708737E-2,-2.2041233E-2,-6.08366E-2,-3.988868E-2,1.608357E-1,-8.882422E-3,2.3986634E-2,2.440244E-1,-1.4709898E-3,-7.687652E-2,3.317785E-2,-8.265301E-2,2.3818215E-2,-1.4939263E-2,2.0616417E-1,6.442466E-2,-2.0700268E-1,9.8161116E-2,-3.5569824E-2,-1.1984902E-3,1.12704985E-1,3.8031496E-2,3.0993557E-2,1.1024177E-1,2.6534396E-1,4.0634025E-2,1.5481171E-1,-4.8552636E-2,3.768377E-2,5.2363337E-3,1.1260581E-2,1.1792426E-1,-1.8863678E-2,-4.254364E-2,9.697111E-2,1.6790877E-1,5.2111916E-2,-1.5312104E-1,2.153058E-1,-3.77594E-2,-1.3310598E-1,1.0130443E-1,6.0882535E-2,2.1366023E-2,2.5900051E-2,1.250372E-1,2.7970785E-1,-6.2126797E-2,2.0460507E-2,-3.7082355E-2],"categories":[],"categories_nodes":[],"categories_segments":[],"categories_sizes":[],"default_left":[0,0,0,0,0,0,0,0,0,0,0,0,0,0,0,0,0,0,0,0,0,0,0,0,0,0,0,0,0,0,0,0,0,0,0,0,0,0,0,0,0,0,0,0,0,0,0,0,0,0,0,0,0,0,0,0,0,0,0,0,0,0,0,0,0,0,0,0,0,0,0,0,0,0,0,0,0,0,0,0,0,0,0,0,0,0,0,0,0,0,0,0,0,0,0,0,0,0,0,0,0,0,0,0,0,0,0,0,0,0,0,0,0,0,0,0,0,0,0,0,0,0,0,0,0,0,0],"id":12,"left_children":[1,3,5,7,9,11,13,15,17,19,21,23,25,27,29,31,33,35,37,39,41,43,45,47,49,51,53,55,57,59,61,63,65,67,69,71,73,75,77,79,81,83,85,87,89,91,93,95,97,99,101,103,105,107,109,111,113,115,117,119,121,123,125,-1,-1,-1,-1,-1,-1,-1,-1,-1,-1,-1,-1,-1,-1,-1,-1,-1,-1,-1,-1,-1,-1,-1,-1,-1,-1,-1,-1,-1,-1,-1,-1,-1,-1,-1,-1,-1,-1,-1,-1,-1,-1,-1,-1,-1,-1,-1,-1,-1,-1,-1,-1,-1,-1,-1,-1,-1,-1,-1,-1,-1,-1,-1,-1],"loss_changes":[7.11937E3,1.1575781E3,1.1751301E3,2.8483594E2,2.6905414E2,4.1481314E2,1.2495696E3,2.4954346E1,8.023926E1,8.319745E1,8.792517E1,4.1734857E2,1.9286082E2,1.9512769E2,1.8905817E2,5.8204346E0,9.784241E0,4.7679245E1,3.5061523E1,6.0046814E1,1.13716866E2,1.0682348E2,6.685349E1,4.320641E2,1.8445251E2,1.7731995E2,5.994509E1,2.2499121E2,1.6522241E2,1.5708984E2,1.0881983E2,2.8795776E0,4.7751465E0,3.8756714E0,1.1478683E1,3.5043045E1,3.9887344E1,9.316467E0,1.6800415E1,4.3029175E1,5.5647076E1,4.601886E1,6.3024414E1,1.9909698E1,3.830684E1,5.5233566E1,5.3611027E1,3.5888145E1,1.4666321E2,1.7185724E2,1.3739801E2,1.4990555E1,8.875453E1,3.714715E1,2.4697327E1,2.1532031E2,1.2030769E2,9.18656E1,6.72352E1,1.17964905E2,9.993915E1,3.3223885E1,6.145751E1,0E0,0E0,0E0,0E0,0E0,0E0,0E0,0E0,0E0,0E0,0E0,0E0,0E0,0E0,0E0,0E0,0E0,0E0,0E0,0E0,0E0,0E0,0E0,0E0,0E0,0E0,0E0,0E0,0E0,0E0,0E0,0E0,0E0,0E0,0E0,0E0,0E0,0E0,0E0,0E0,0E0,0E0,0E0,0E0,0E0,0E0,0E0,0E0,0E0,0E0,0E0,0E0,0E0,0E0,0E0,0E0,0E0,0E0,0E0,0E0,0E0,0E0,0E0,0E0],"parents":[2147483647,0,0,1,1,2,2,3,3,4,4,5,5,6,6,7,7,8,8,9,9,10,10,11,11,12,12,13,13,14,14,15,15,16,16,17,17,18,18,19,19,20,20,21,21,22,22,23,23,24,24,25,25,26,26,27,27,28,28,29,29,30,30,31,31,32,32,33,33,34,34,35,35,36,36,37,37,38,38,39,39,40,40,41,41,42,42,43,43,44,44,45,45,46,46,47,47,48,48,49,49,50,50,51,51,52,52,53,53,54,54,55,55,56,56,57,57,58,58,59,59,60,60,61,61,62,62],"right_children":[2,4,6,8,10,12,14,16,18,20,22,24,26,28,30,32,34,36,38,40,42,44,46,48,50,52,54,56,58,60,62,64,66,68,70,72,74,76,78,80,82,84,86,88,90,92,94,96,98,100,102,104,106,108,110,112,114,116,118,120,122,124,126,-1,-1,-1,-1,-1,-1,-1,-1,-1,-1,-1,-1,-1,-1,-1,-1,-1,-1,-1,-1,-1,-1,-1,-1,-1,-1,-1,-1,-1,-1,-1,-1,-1,-1,-1,-1,-1,-1,-1,-1,-1,-1,-1,-1,-1,-1,-1,-1,-1,-1,-1,-1,-1,-1,-1,-1,-1,-1,-1,-1,-1,-1,-1,-1],"split_conditions":[-1.1506136E-1,-9.2998344E-1,6.155157E-1,-2.0514195E0,1E0,1.0506611E-2,8.0206573E-1,-1.6742119E0,1E0,1.152457E0,2.232202E-2,-3.6736537E-2,1.2753251E0,1.8058577E0,1.0896628E0,-1.7402235E0,9.997017E-1,1.0355325E0,-1.4732648E0,2.4881293E-3,-7.809303E-1,7.064564E-1,4.6523997E-1,1.0130799E0,2.6361236E-1,5.7402663E-2,1.7198507E-1,1.0687557E0,1.5436006E0,1.2933426E0,-6.526707E-2,-3.262483E0,9.940121E-1,9.8023826E-1,-1.5879548E0,3.346162E0,9.024132E-1,-1.6894673E0,1.075251E0,8.125112E-1,-6.526707E-2,-7.2905666E-1,1.7198507E-1,-2.0247724E0,-5.5214494E-1,1.6008766E-1,6.86637E-1,8.3680123E-1,-3.2131478E-1,-6.5989125E-1,5.040396E-1,-5.770814E-1,5.90919E-1,4.2822003E-1,2.4353151E0,9.3379384E-1,1.4603589E0,2.3456552E0,1.3728337E0,1.1027316E0,6.9986075E-1,8.9499694E-1,1.4807063E0,-2.232229E-1,-1.4644022E-1,-1.3322628E-1,-1.0363841E-1,-1.13560125E-1,-9.478582E-2,-9.516584E-2,-1.7952654E-1,-5.839012E-2,1.9514781E-1,1.3396068E-1,-1.4837575E-2,4.4001803E-2,-9.821059E-2,-7.708737E-2,-2.2041233E-2,-6.08366E-2,-3.988868E-2,1.608357E-1,-8.882422E-3,2.3986634E-2,2.440244E-1,-1.4709898E-3,-7.687652E-2,3.317785E-2,-8.265301E-2,2.3818215E-2,-1.4939263E-2,2.0616417E-1,6.442466E-2,-2.0700268E-1,9.8161116E-2,-3.5569824E-2,-1.1984902E-3,1.12704985E-1,3.8031496E-2,3.0993557E-2,1.1024177E-1,2.6534396E-1,4.0634025E-2,1.5481171E-1,-4.8552636E-2,3.768377E-2,5.2363337E-3,1.1260581E-2,1.1792426E-1,-1.8863678E-2,-4.254364E-2,9.697111E-2,1.6790877E-1,5.2111916E-2,-1.5312104E-1,2.153058E-1,-3.77594E-2,-1.3310598E-1,1.0130443E-1,6.0882535E-2,2.1366023E-2,2.5900051E-2,1.250372E-1,2.7970785E-1,-6.2126797E-2,2.0460507E-2,-3.7082355E-2],"split_indices":[2,2,6,1,7,4,11,6,8,11,6,3,11,6,11,5,11,11,2,3,5,11,6,11,3,3,4,0,13,10,5,1,11,11,5,13,10,5,11,11,5,6,4,12,4,1,1,11,0,12,0,1,0,2,11,3,10,5,0,12,2,0,11,0,0,0,0,0,0,0,0,0,0,0,0,0,0,0,0,0,0,0,0,0,0,0,0,0,0,0,0,0,0,0,0,0,0,0,0,0,0,0,0,0,0,0,0,0,0,0,0,0,0,0,0,0,0,0,0,0,0,0,0,0,0,0,0],"split_type":[0,0,0,0,0,0,0,0,0,0,0,0,0,0,0,0,0,0,0,0,0,0,0,0,0,0,0,0,0,0,0,0,0,0,0,0,0,0,0,0,0,0,0,0,0,0,0,0,0,0,0,0,0,0,0,0,0,0,0,0,0,0,0,0,0,0,0,0,0,0,0,0,0,0,0,0,0,0,0,0,0,0,0,0,0,0,0,0,0,0,0,0,0,0,0,0,0,0,0,0,0,0,0,0,0,0,0,0,0,0,0,0,0,0,0,0,0,0,0,0,0,0,0,0,0,0,0],"sum_hessian":[5.5399E4,2.1582E4,3.3817E4,9.931E3,1.1651E4,1.8233E4,1.5584E4,2.542E3,7.389E3,9.227E3,2.424E3,7.202E3,1.1031E4,5.058E3,1.0526E4,1.588E3,9.54E2,1.119E3,6.27E3,8.075E3,1.152E3,2.137E3,2.87E2,5.189E3,2.013E3,6.173E3,4.858E3,4.202E3,8.56E2,5.914E3,4.612E3,4.6E2,1.128E3,8.37E2,1.17E2,9.43E2,1.76E2,1.688E3,4.582E3,7.89E3,1.85E2,6.4E1,1.088E3,2.92E2,1.845E3,2.5E2,3.7E1,2.181E3,3.008E3,1.799E3,2.14E2,6.85E2,5.488E3,3.38E2,4.52E3,3.493E3,7.09E2,6.14E2,2.42E2,5.004E3,9.1E2,3.7E1,4.575E3,1.1E1,4.49E2,1.008E3,1.2E2,4.02E2,4.35E2,5E1,6.7E1,9.35E2,8E0,3.6E1,1.4E2,7E0,1.681E3,4.489E3,9.3E1,2.228E3,5.662E3,3.9E1,1.46E2,2.6E1,3.8E1,8.61E2,2.27E2,2.6E1,2.66E2,1.217E3,6.28E2,5.8E1,1.92E2,2.2E1,1.5E1,1.425E3,7.56E2,5.16E2,2.492E3,8.11E2,9.88E2,1.51E2,6.3E1,5E0,6.8E2,2.822E3,2.666E3,2.73E2,6.5E1,3.627E3,8.93E2,2.529E3,9.64E2,6.6E2,4.9E1,5.9E2,2.4E1,2.1E1,2.21E2,2.832E3,2.172E3,2.18E2,6.92E2,3.2E1,5E0,4.251E3,3.24E2],"tree_param":{"num_deleted":"0","num_feature":"14","num_nodes":"127","size_leaf_vector":"1"}},{"base_weights":[2.2231266E-3,-4.2437115E-1,2.303108E-1,-6.8483967E-1,-2.921672E-1,7.697032E-2,4.225788E-1,-8.6228067E-1,-5.830205E-1,-1.1982235E-1,-3.929683E-1,1.23204865E-1,-1.3955557E-1,8.636418E-1,2.8744262E-1,-9.6863216E-1,-7.9859114E-1,-5.8718246E-1,2.4842654E-1,7.756651E-2,-2.3005188E-1,-4.5922232E-1,-3.046692E-1,2.9135332E-1,3.4374114E-2,-1.809902E-1,5.6175554E-1,6.5317374E-1,1.0838737E0,1.583301E-1,4.656574E-1,-9.764943E-1,-1.2656811E-2,-8.0568945E-1,7.7901445E-2,-3.4815052E-1,-6.209587E-1,4.1331637E-1,-8.2033515E-2,-2.3933332E-1,3.7095845E-1,-3.3765647E-1,-5.025596E-1,-4.6265966E-1,-2.4238113E-1,2.2129783E-1,1.0940609E0,1.515745E-1,-1.412042E-1,2.080408E-1,-2.2297692E-1,2.7483168E0,2.5693244E-1,1.4552795E0,5.5848306E-1,1.3932705E0,8.5167766E-1,9.8329234E-1,1.2693956E-1,6.085402E-1,2.2848542E-1,-1.6469532E-1,-1.2193526E-1,-2.171897E-1,-1.0181632E-1,3.061376E-2,-5.6741893E-2,-6.36248E-2,-8.1695475E-2,3.6343902E-2,1.4335673E-1,-3.122529E-2,3.2538194E-2,-3.121729E-2,2.7360356E-1,-8.431413E-2,-3.975749E-2,-5.66572E-2,-7.600399E-2,9.763084E-2,-6.072116E-2,2.6165253E-1,-3.1605437E-2,1.00055635E-2,5.531911E-2,3.0039683E-1,1.1772475E-1,-1.5026945E-2,2.9542448E-2,2.7347306E-2,-2.0936923E-2,4.7887005E-3,2.6631573E-1,-3.3151742E-2,1.0456682E-2,5.415973E-1,2.566824E-1,-2.5463545E-1,5.184226E-2,4.7594097E-1,1.6957776E-1,2.1120561E-2,8.7262124E-2,2.1630593E-1,1.3284437E-1,1.397274E-1,4.7470994E-2,1.6233696E-1,-5.4719664E-2,7.696179E-3,4.3847304E-2,1.4595123E-1,6.255341E-2,1.9367287E-1,2.3493765E-2],"categories":[],"categories_nodes":[],"categories_segments":[],"categories_sizes":[],"default_left":[0,0,0,0,0,0,0,0,0,0,0,0,0,0,0,0,0,0,0,0,0,0,0,0,0,0,0,0,0,0,0,0,0,0,0,0,0,0,0,0,0,0,0,0,0,0,0,0,0,0,0,0,0,0,0,0,0,0,0,0,0,0,0,0,0,0,0,0,0,0,0,0,0,0,0,0,0,0,0,0,0,0,0,0,0,0,0,0,0,0,0,0,0,0,0,0,0,0,0,0,0,0,0,0,0,0,0,0,0,0,0,0,0,0,0],"id":13,"left_children":[1,3,5,7,9,11,13,15,17,19,21,23,25,27,29,31,33,35,-1,37,39,41,43,45,47,49,51,53,55,57,59,61,-1,63,-1,65,67,69,71,73,-1,75,77,79,81,83,85,87,89,91,93,95,97,99,101,103,105,107,109,111,113,-1,-1,-1,-1,-1,-1,-1,-1,-1,-1,-1,-1,-1,-1,-1,-1,-1,-1,-1,-1,-1,-1,-1,-1,-1,-1,-1,-1,-1,-1,-1,-1,-1,-1,-1,-1,-1,-1,-1,-1,-1,-1,-1,-1,-1,-1,-1,-1,-1,-1,-1,-1,-1,-1],"loss_changes":[5.3792803E3,6.6305176E2,1.0620438E3,1.1664307E2,2.2193945E2,2.006572E2,9.5239575E2,1.5225464E1,4.4576294E1,1.0265072E2,4.702417E1,2.466854E2,1.02591225E2,1.730188E2,2.8147375E2,5.91803E0,1.5329407E1,3.3022827E1,0E0,9.06473E1,8.888542E1,2.4085754E1,3.3927612E1,3.207982E2,2.2242679E2,5.44554E1,1.305972E2,1.4493896E2,1.3028198E2,1.8365915E2,1.7404431E2,4.347168E0,0E0,8.287964E0,0E0,2.9259113E1,8.335083E0,4.9391716E1,6.3034935E1,3.9844543E1,0E0,9.954529E0,1.8204468E1,1.6556442E1,3.1594177E1,1.5937589E2,9.6572876E1,1.3988371E2,3.5392235E1,1.04107834E2,3.3940384E1,1.7906754E1,5.9474407E1,5.276419E1,8.479022E1,8.1617065E1,1.2219409E2,1.06927734E2,9.8739105E1,2.0229138E2,1.1015203E2,0E0,0E0,0E0,0E0,0E0,0E0,0E0,0E0,0E0,0E0,0E0,0E0,0E0,0E0,0E0,0E0,0E0,0E0,0E0,0E0,0E0,0E0,0E0,0E0,0E0,0E0,0E0,0E0,0E0,0E0,0E0,0E0,0E0,0E0,0E0,0E0,0E0,0E0,0E0,0E0,0E0,0E0,0E0,0E0,0E0,0E0,0E0,0E0,0E0,0E0,0E0,0E0,0E0,0E0],"parents":[2147483647,0,0,1,1,2,2,3,3,4,4,5,5,6,6,7,7,8,8,9,9,10,10,11,11,12,12,13,13,14,14,15,15,16,16,17,17,19,19,20,20,21,21,22,22,23,23,24,24,25,25,26,26,27,27,28,28,29,29,30,30,31,31,33,33,35,35,36,36,37,37,38,38,39,39,41,41,42,42,43,43,44,44,45,45,46,46,47,47,48,48,49,49,50,50,51,51,52,52,53,53,54,54,55,55,56,56,57,57,58,58,59,59,60,60],"right_children":[2,4,6,8,10,12,14,16,18,20,22,24,26,28,30,32,34,36,-1,38,40,42,44,46,48,50,52,54,56,58,60,62,-1,64,-1,66,68,70,72,74,-1,76,78,80,82,84,86,88,90,92,94,96,98,100,102,104,106,108,110,112,114,-1,-1,-1,-1,-1,-1,-1,-1,-1,-1,-1,-1,-1,-1,-1,-1,-1,-1,-1,-1,-1,-1,-1,-1,-1,-1,-1,-1,-1,-1,-1,-1,-1,-1,-1,-1,-1,-1,-1,-1,-1,-1,-1,-1,-1,-1,-1,-1,-1,-1,-1,-1,-1,-1],"split_conditions":[-2.508817E-1,-1.2906133E0,6.9986075E-1,-1.5922748E0,1E0,1E0,7.152706E-1,-2.5779686E0,-9.2947066E-1,8.917993E-1,-8.7933236E-1,-3.2386106E-2,4.6523997E-1,9.753865E-1,9.5932406E-1,-1.6852933E0,1E0,1E0,2.4842654E-1,-4.717715E-1,8.659953E0,9.5932406E-1,8.0712974E-1,1.2240354E-1,